{
  "defaults": {},
  "git": {
    "SHA1": null,
    "origin": null
  },
  "inputs": [
    {
      "name": "clust_0_pt",
      "offset": 0,
      "scale": 1
    },
    {
      "name": "clust_0_eta",
      "offset": 0,
      "scale": 1
    },
    {
      "name": "clust_0_phi",
      "offset": 0,
      "scale": 1
    },
    {
      "name": "clust_1_pt",
      "offset": 0,
      "scale": 1
    },
    {
      "name": "clust_1_eta",
      "offset": 0,
      "scale": 1
    },
    {
      "name": "clust_1_phi",
      "offset": 0,
      "scale": 1
    },
    {
      "name": "clust_2_pt",
      "offset": 0,
      "scale": 1
    },
    {
      "name": "clust_2_eta",
      "offset": 0,
      "scale": 1
    },
    {
      "name": "clust_2_phi",
      "offset": 0,
      "scale": 1
    },
    {
      "name": "clust_3_pt",
      "offset": 0,
      "scale": 1
    },
    {
      "name": "clust_3_eta",
      "offset": 0,
      "scale": 1
    },
    {
      "name": "clust_3_phi",
      "offset": 0,
      "scale": 1
    },
    {
      "name": "clust_4_pt",
      "offset": 0,
      "scale": 1
    },
    {
      "name": "clust_4_eta",
      "offset": 0,
      "scale": 1
    },
    {
      "name": "clust_4_phi",
      "offset": 0,
      "scale": 1
    },
    {
      "name": "clust_5_pt",
      "offset": 0,
      "scale": 1
    },
    {
      "name": "clust_5_eta",
      "offset": 0,
      "scale": 1
    },
    {
      "name": "clust_5_phi",
      "offset": 0,
      "scale": 1
    },
    {
      "name": "clust_6_pt",
      "offset": 0,
      "scale": 1
    },
    {
      "name": "clust_6_eta",
      "offset": 0,
      "scale": 1
    },
    {
      "name": "clust_6_phi",
      "offset": 0,
      "scale": 1
    },
    {
      "name": "clust_7_pt",
      "offset": 0,
      "scale": 1
    },
    {
      "name": "clust_7_eta",
      "offset": 0,
      "scale": 1
    },
    {
      "name": "clust_7_phi",
      "offset": 0,
      "scale": 1
    },
    {
      "name": "clust_8_pt",
      "offset": 0,
      "scale": 1
    },
    {
      "name": "clust_8_eta",
      "offset": 0,
      "scale": 1
    },
    {
      "name": "clust_8_phi",
      "offset": 0,
      "scale": 1
    },
    {
      "name": "clust_9_pt",
      "offset": 0,
      "scale": 1
    },
    {
      "name": "clust_9_eta",
      "offset": 0,
      "scale": 1
    },
    {
      "name": "clust_9_phi",
      "offset": 0,
      "scale": 1
    }
  ],
  "layers": [
    {
      "activation": "linear",
      "architecture": "dense",
      "bias": [
        -0.6316660642623901,
        0.28594347834587097,
        -0.8143289089202881,
        -0.29754823446273804,
        -0.2869865894317627,
        -1.7498159408569336,
        -0.46522727608680725,
        -0.1683109700679779,
        -0.28849080204963684,
        -0.4562056362628937,
        -0.26042452454566956,
        0.023875033482909203,
        0.7472833395004272,
        -1.1319659948349,
        0.736555278301239,
        -0.45110762119293213,
        -0.40754368901252747,
        -1.034638524055481,
        -0.5433467030525208,
        -0.8354500532150269,
        -0.18904906511306763,
        -0.8305085301399231,
        -0.44889140129089355,
        -0.8836634755134583,
        -0.22660772502422333,
        0.19624271988868713,
        -0.44060784578323364,
        -0.4855491816997528,
        -1.3268197774887085,
        -0.5250169038772583,
        -0.6399784684181213,
        0.02521786279976368,
        -1.0324770212173462,
        -0.09992905706167221,
        -0.280643492937088,
        -0.21046516299247742,
        -0.6807039380073547,
        -0.22240766882896423,
        0.7353668808937073,
        -1.217157006263733,
        -0.6498963832855225,
        -0.6962054967880249,
        -0.6766874194145203,
        -0.2091974914073944,
        -0.4562270939350128,
        -1.281938076019287,
        1.1188985109329224,
        0.11993066221475601,
        1.1848981380462646,
        0.493081271648407,
        -0.997286856174469,
        -1.2513439655303955,
        -1.2929840087890625,
        -0.3651394248008728,
        -0.07288844883441925,
        -1.0492913722991943,
        -0.12178071588277817,
        -1.2898021936416626,
        -0.16049981117248535,
        -0.4015516936779022,
        -1.295100450515747,
        -1.2298811674118042,
        0.6143345832824707,
        -1.9865421056747437,
        -0.777863085269928,
        -0.10071484744548798,
        -0.23189611732959747,
        -0.6317105293273926,
        -1.010190486907959,
        -0.38003796339035034,
        -1.0769327878952026,
        -0.6749960780143738,
        -0.8257560133934021,
        -0.3086440861225128,
        -0.8742495179176331,
        -0.556398868560791,
        -0.588377058506012,
        -0.6331765055656433,
        -1.7747639417648315,
        -1.7759664058685303,
        -0.4139963388442993,
        -1.0521597862243652,
        -0.6786350011825562,
        -0.18468594551086426,
        -0.7926799058914185,
        -1.2968462705612183,
        -0.9262515902519226,
        1.1917133331298828,
        1.398499846458435,
        -0.26977089047431946,
        -1.2375576496124268,
        1.0827765464782715,
        -0.11453434079885483,
        -0.7430634498596191,
        -0.2978793680667877,
        -1.7299437522888184,
        1.3448845148086548,
        -1.0167748928070068,
        -0.09257478266954422,
        -0.6611511707305908,
        -0.7409570813179016,
        -0.6154860854148865,
        -0.7477943897247314,
        1.3658772706985474,
        0.7896502614021301,
        -1.1371921300888062,
        -0.34952667355537415,
        -0.37602555751800537,
        -0.3580152988433838,
        -0.5106282234191895,
        -0.7105335593223572,
        1.272517204284668,
        0.1599828600883484,
        0.6198955774307251,
        0.12791016697883606,
        -0.7669180631637573,
        0.6313038468360901,
        -0.13476160168647766,
        -1.3785308599472046,
        -0.5886892676353455,
        0.5364659428596497,
        -0.2335028350353241,
        -0.734930157661438,
        -1.1769999265670776,
        -0.6309087872505188,
        -1.1525901556015015,
        -0.9021941423416138,
        -1.2316430807113647,
        -0.45019859075546265,
        -0.23605976998806,
        -0.5147168636322021,
        -0.6297478079795837,
        -0.685219407081604,
        -1.055791974067688,
        0.8015376925468445,
        -1.3885633945465088,
        -0.6462503671646118,
        -0.7164570689201355,
        -1.299406886100769,
        -0.3017618656158447,
        -0.46678483486175537,
        -1.5206260681152344,
        0.6827874183654785,
        -0.7192968726158142,
        -0.49013638496398926,
        -0.21940964460372925,
        -0.8561387658119202,
        -1.1807680130004883,
        -1.1811267137527466,
        0.07672050595283508,
        0.2228059321641922,
        -1.2398231029510498,
        -0.5389037132263184,
        -1.450453519821167,
        1.046548843383789,
        -0.40599992871284485,
        -0.36946460604667664,
        -0.2693043053150177,
        -0.7765199542045593,
        -0.23175105452537537,
        -0.8533908128738403,
        -0.48900464177131653,
        -0.26542043685913086,
        0.5049002766609192,
        -0.51310133934021,
        -0.6944540739059448,
        0.09477443248033524,
        -0.596548318862915,
        -0.2593083083629608,
        -0.8665688633918762,
        -0.18242163956165314,
        -0.7462167143821716,
        -0.7670596241950989,
        -0.9561311602592468,
        -0.7552582621574402,
        -1.0322233438491821,
        -1.6461117267608643,
        -0.5964339375495911,
        -0.621788740158081,
        -0.7292315363883972,
        -1.0135079622268677,
        -0.013948427513241768,
        -1.2313988208770752,
        -0.7614325284957886,
        -0.9894500970840454,
        -1.1593338251113892,
        -1.1004533767700195,
        -0.4174249768257141,
        -0.16471810638904572,
        0.6656259298324585,
        -1.0790470838546753,
        -0.4665088653564453,
        -1.5496426820755005,
        -0.915090024471283,
        -0.18952472507953644,
        -0.6242451667785645,
        -0.504351019859314,
        -0.4000645875930786,
        -1.0546536445617676,
        1.2738854885101318,
        0.032011520117521286,
        -1.5902763605117798,
        0.8135368227958679,
        -0.9493355751037598,
        -0.7484906911849976,
        -0.8431006073951721,
        0.8464357852935791,
        -1.4692822694778442,
        -0.4971015453338623,
        -0.3527562618255615,
        -0.5457337498664856,
        -0.8684307932853699,
        0.5236033797264099,
        -0.12236174941062927,
        0.33642858266830444,
        -1.378432035446167,
        -0.13900727033615112,
        -0.11712823808193207,
        0.7378042936325073,
        0.9779421091079712,
        -0.5068568587303162,
        -1.4027668237686157,
        1.2660470008850098,
        -1.2189050912857056,
        -0.538783073425293,
        -0.4299265444278717,
        -0.239105686545372,
        0.3416456878185272,
        -0.43247121572494507,
        -1.289013147354126,
        -0.5066119432449341,
        -0.8125444650650024,
        -0.8198733925819397,
        -1.4054769277572632,
        -0.5770363807678223,
        -1.116556167602539,
        1.0126465559005737,
        0.7789868116378784,
        -1.1736088991165161,
        0.8438556790351868,
        -0.8391377329826355,
        -0.02773929387331009,
        -0.9914759397506714,
        1.0218523740768433,
        -0.7272937297821045,
        -0.7651733756065369,
        -0.26271530985832214,
        -0.051107317209243774,
        -1.0571562051773071,
        -0.394432008266449,
        -1.1579926013946533,
        -0.436014860868454,
        -0.11792553961277008,
        -0.9584329724311829,
        -0.6096901893615723,
        -0.5239799618721008,
        -0.5101548433303833,
        -1.1478261947631836,
        -0.618138313293457,
        -1.4824742078781128,
        -0.5721197128295898,
        -0.11234813183546066,
        -1.176918387413025,
        -0.9426565170288086,
        -0.14977924525737762,
        -0.7040141224861145,
        0.215975821018219,
        -0.6972455978393555,
        0.26010647416114807,
        -0.28701820969581604,
        -1.0148719549179077,
        -0.5559917688369751,
        -0.7589683532714844,
        -0.49794578552246094,
        -0.10821915417909622,
        -0.38960614800453186,
        -0.6983566880226135,
        -1.5111632347106934,
        0.0670110210776329,
        0.9047160744667053,
        -0.005735182669013739,
        -0.3350556492805481,
        -1.0006192922592163,
        0.5026524662971497,
        -0.6648138761520386,
        -0.3711691200733185,
        0.40437009930610657,
        -0.43154582381248474,
        -1.0573192834854126,
        1.086150050163269,
        -0.4869619607925415,
        0.6390293836593628,
        1.188776969909668,
        -0.1385238915681839,
        -0.19059975445270538,
        -0.9746939539909363,
        -0.9302628636360168,
        -0.8345078229904175,
        -0.5885032415390015,
        -0.17921027541160583
      ],
      "weights": [
        -0.5583200454711914,
        0.10787089169025421,
        0.08714577555656433,
        -1.0462861061096191,
        0.005277961492538452,
        1.373232126235962,
        -1.094029426574707,
        1.1866623163223267,
        -0.710676372051239,
        -4.43549108505249,
        -1.331549048423767,
        0.5098121166229248,
        -4.470366954803467,
        -0.4817994236946106,
        0.1334085911512375,
        -4.856846809387207,
        -0.9217142462730408,
        -0.4029703140258789,
        -3.3107056617736816,
        0.04002774506807327,
        0.1626347452402115,
        -2.456847667694092,
        0.40990325808525085,
        -0.552381694316864,
        -1.4139859676361084,
        -0.21474400162696838,
        1.3723124265670776,
        -1.253204345703125,
        0.7318583130836487,
        -0.3453401029109955,
        -0.3085962235927582,
        -0.1274513304233551,
        0.01542404294013977,
        -10.444539070129395,
        0.07931837439537048,
        -1.6560088396072388,
        -5.692259311676025,
        -0.2444506138563156,
        0.17758162319660187,
        -3.5413269996643066,
        0.12317297607660294,
        -0.024336393922567368,
        -4.444911956787109,
        0.2060011923313141,
        -0.14770819246768951,
        -4.3827056884765625,
        0.0647697001695633,
        -0.08631118386983871,
        -4.661168098449707,
        0.1702132374048233,
        -0.11493994295597076,
        -5.021320819854736,
        -0.052446313202381134,
        0.13838890194892883,
        -4.4814887046813965,
        0.07262299954891205,
        -0.14173881709575653,
        -4.261743545532227,
        0.11443430185317993,
        -0.06698454916477203,
        0.5724119544029236,
        -0.01195911318063736,
        0.03884385526180267,
        -0.37509745359420776,
        -0.09797353297472,
        -0.32837894558906555,
        0.021904049441218376,
        0.08679883182048798,
        -0.007511426229029894,
        0.8190600872039795,
        -0.3731406033039093,
        0.20576269924640656,
        1.7492419481277466,
        1.508581519126892,
        -0.5129762887954712,
        1.021322250366211,
        -1.2399286031723022,
        0.996074378490448,
        0.8573540449142456,
        -0.04545227065682411,
        -0.16465230286121368,
        1.4750479459762573,
        -0.010922241024672985,
        -0.2704227566719055,
        2.3114192485809326,
        -0.3085440695285797,
        0.05428585410118103,
        3.3300063610076904,
        0.2138797789812088,
        0.08599907159805298,
        0.07854914665222168,
        0.06227128207683563,
        -0.05484216660261154,
        0.11055194586515427,
        0.07155835628509521,
        -0.45275893807411194,
        0.4490957260131836,
        0.06494665145874023,
        -0.3047792613506317,
        0.599785566329956,
        0.15721465647220612,
        -0.1708095818758011,
        -1.2407597303390503,
        0.1747177094221115,
        -0.44726109504699707,
        -0.31214672327041626,
        0.11986654251813889,
        -0.3213109076023102,
        1.228515863418579,
        -0.39167940616607666,
        2.25203013420105,
        1.0036782026290894,
        0.03551935777068138,
        -0.03896600753068924,
        2.5171515941619873,
        0.026889780536293983,
        -0.1474953591823578,
        4.4585041999816895,
        -0.06369739770889282,
        0.07429027557373047,
        -0.268960177898407,
        -0.1027579978108406,
        -0.12095954269170761,
        -0.10779306292533875,
        -0.04984419792890549,
        0.3241095244884491,
        -0.2746076285839081,
        -0.15852320194244385,
        0.13399659097194672,
        -0.46167439222335815,
        -0.17224103212356567,
        0.052027326077222824,
        -0.7573645710945129,
        -0.10592477023601532,
        -0.0121121471747756,
        -0.7993992567062378,
        -0.12184781581163406,
        0.012280152179300785,
        -0.7577660083770752,
        0.0780191719532013,
        -0.01833045296370983,
        -0.6821703314781189,
        0.028290173038840294,
        -0.052545368671417236,
        -0.6162509322166443,
        -0.08132702857255936,
        0.020489368587732315,
        -0.7075214385986328,
        -0.06524666398763657,
        -0.0015124207129701972,
        -1.458047866821289,
        0.12782059609889984,
        0.07905343174934387,
        -0.1139090433716774,
        0.07272487878799438,
        0.14136376976966858,
        -0.297207772731781,
        -1.0998687744140625,
        1.0293128490447998,
        0.3070390820503235,
        -1.0771223306655884,
        -0.5331693291664124,
        0.5365189909934998,
        -0.7215969562530518,
        -0.0960683822631836,
        0.6632805466651917,
        -1.0941108465194702,
        -0.06112557649612427,
        -1.3033833503723145,
        -1.3062254190444946,
        0.8691762685775757,
        -1.876161813735962,
        -0.8152298331260681,
        -0.7325774431228638,
        -1.9804582595825195,
        -1.1610108613967896,
        1.0772937536239624,
        -2.4399473667144775,
        1.2153689861297607,
        -0.24541956186294556,
        -1.8851096630096436,
        -0.02733008563518524,
        -0.008068904280662537,
        -1.023551344871521,
        -0.10200732946395874,
        0.5443723201751709,
        -0.7111089825630188,
        -1.7603263854980469,
        1.392865777015686,
        -0.14607103168964386,
        -1.3457245826721191,
        -1.1107981204986572,
        1.6852121353149414,
        0.3573280870914459,
        -0.6030157208442688,
        0.8314167857170105,
        -0.4231567680835724,
        0.5212436318397522,
        0.5588894486427307,
        0.7127038836479187,
        -0.33221733570098877,
        -0.2908439338207245,
        -0.15330633521080017,
        0.808724582195282,
        -1.0083447694778442,
        0.7810332179069519,
        -0.2681001126766205,
        -0.7994108200073242,
        -1.2485727071762085,
        0.21452650427818298,
        -0.2977082133293152,
        0.010820895433425903,
        -0.0724090114235878,
        -0.30891427397727966,
        -0.13055825233459473,
        1.2425788640975952,
        -0.7149922251701355,
        -0.33501455187797546,
        0.6553341746330261,
        -0.3618152141571045,
        0.08366020768880844,
        1.9463075399398804,
        4.2172417640686035,
        0.11157472431659698,
        -0.6025194525718689,
        3.4072763919830322,
        0.11839389055967331,
        -0.9886149168014526,
        2.7082083225250244,
        0.12790969014167786,
        -0.8301507234573364,
        0.5173619985580444,
        -0.05581139773130417,
        -0.6213682293891907,
        0.460877001285553,
        -0.11410252004861832,
        -0.10417700558900833,
        1.2493586540222168,
        0.07411710172891617,
        -0.05358564108610153,
        -0.42191922664642334,
        0.019291281700134277,
        -0.055795393884181976,
        0.04802693426609039,
        -0.04028377681970596,
        0.578344464302063,
        -0.5629791021347046,
        -0.006052454002201557,
        0.24915701150894165,
        -0.4548267126083374,
        -0.158308744430542,
        0.06304780393838882,
        -0.37041130661964417,
        -0.07634211331605911,
        -0.0012090970994904637,
        -0.19093380868434906,
        -0.05785738676786423,
        -0.03582197427749634,
        -0.08410079032182693,
        0.04878866299986839,
        0.019825002178549767,
        -0.05326288193464279,
        -0.03814050927758217,
        -0.02944076806306839,
        0.2950213551521301,
        -0.014722900465130806,
        0.0002947535249404609,
        0.4698964059352875,
        -0.043843772262334824,
        0.022042065858840942,
        0.19938087463378906,
        -0.11220727115869522,
        0.09192176163196564,
        -3.8558032512664795,
        0.0996275246143341,
        0.6531155109405518,
        -2.429532527923584,
        0.18739329278469086,
        -0.11464716494083405,
        -0.8038531541824341,
        0.02402149699628353,
        -0.24469943344593048,
        1.3857091665267944,
        0.7396261096000671,
        -0.2779150903224945,
        1.9785999059677124,
        0.6517874002456665,
        -0.2736310064792633,
        2.527660846710205,
        0.5855928063392639,
        -0.4779197871685028,
        1.4244810342788696,
        0.7074563503265381,
        -0.0703105702996254,
        2.5223028659820557,
        0.44654396176338196,
        -0.3079201877117157,
        5.3570075035095215,
        0.3210536539554596,
        -0.20217594504356384,
        -0.701269268989563,
        0.12836141884326935,
        0.12626992166042328,
        -0.10270234197378159,
        0.06553670763969421,
        0.19541072845458984,
        -0.31599947810173035,
        -0.16615933179855347,
        0.030726740136742592,
        -0.17852595448493958,
        0.13538424670696259,
        0.08710657805204391,
        -0.061176847666502,
        -0.11402544379234314,
        -0.0010597648797556758,
        0.007967237383127213,
        0.029487503692507744,
        0.04799288883805275,
        0.051363006234169006,
        0.04314395412802696,
        0.01964757591485977,
        0.047512419521808624,
        -0.04106154292821884,
        0.0015312416944652796,
        -0.20948396623134613,
        -0.04980507120490074,
        0.015274244360625744,
        -0.4933241903781891,
        -0.07053305953741074,
        -0.00981533620506525,
        -1.374392032623291,
        -0.07529032230377197,
        0.10225440561771393,
        -2.0799193382263184,
        0.03893730044364929,
        -0.2732090950012207,
        -0.3751068711280823,
        0.7984924912452698,
        0.3261650800704956,
        -3.9542236328125,
        -0.4499964416027069,
        0.373677134513855,
        -5.803479194641113,
        -0.7837226390838623,
        0.5144264101982117,
        -4.260799407958984,
        -0.1945575773715973,
        -0.2635148763656616,
        -3.840240716934204,
        -0.03975927084684372,
        -0.044824957847595215,
        -3.0247745513916016,
        -0.30473363399505615,
        1.0168343782424927,
        -3.7048447132110596,
        -0.30145615339279175,
        0.0024908443447202444,
        -4.642605304718018,
        0.5190796256065369,
        -0.8201592564582825,
        -0.07227102667093277,
        -0.12601129710674286,
        -0.11362454295158386,
        1.2355479001998901,
        -0.09394288063049316,
        1.8102670907974243,
        -0.12935157120227814,
        0.10522567480802536,
        0.0718066468834877,
        0.4010426700115204,
        0.10548085719347,
        0.025600437074899673,
        -14.091629981994629,
        -0.02909395843744278,
        0.1424848586320877,
        -14.598875999450684,
        -0.027491994202136993,
        0.03009757585823536,
        -11.761446952819824,
        -0.09514587372541428,
        -0.04338369145989418,
        -10.0252103805542,
        -0.08386417478322983,
        -0.0731860026717186,
        -7.629709720611572,
        0.0710998997092247,
        -0.022546973079442978,
        -8.514342308044434,
        0.0059343371540308,
        -0.11377312988042831,
        0.3112974166870117,
        0.07964706420898438,
        0.010281533002853394,
        -2.6731553077697754,
        0.03584414720535278,
        0.8377851843833923,
        -4.014544486999512,
        0.8620088696479797,
        -0.29512298107147217,
        -2.6155877113342285,
        0.04832085222005844,
        0.9363417625427246,
        -2.6395652294158936,
        0.08249031007289886,
        -0.5802452564239502,
        -3.4537899494171143,
        -1.0990180969238281,
        0.22289764881134033,
        -2.186367988586426,
        0.6443048119544983,
        -0.8364081978797913,
        -2.0415937900543213,
        0.8455785512924194,
        0.0339948795735836,
        -1.6765507459640503,
        0.2514437139034271,
        -0.4230429232120514,
        -1.461874008178711,
        -0.18324866890907288,
        1.0637603998184204,
        -0.18524673581123352,
        0.13294444978237152,
        0.027142003178596497,
        -0.057774707674980164,
        -0.03520733863115311,
        0.13066193461418152,
        -1.3779877424240112,
        -0.06566210091114044,
        0.18629242479801178,
        -0.8015170693397522,
        0.049203161150217056,
        -0.05523063242435455,
        0.1694069504737854,
        0.07331889867782593,
        -0.11509297043085098,
        0.3690710961818695,
        0.17403972148895264,
        -0.018573008477687836,
        -0.10140455514192581,
        -0.2455843687057495,
        -0.13442906737327576,
        -2.410104274749756,
        -0.09081336110830307,
        -0.13639158010482788,
        -10.717616081237793,
        0.0019123358651995659,
        -0.09164893627166748,
        -26.2581787109375,
        -0.1289525032043457,
        -0.2028757780790329,
        -0.19751909375190735,
        0.10758134722709656,
        -0.07086062431335449,
        -0.9195414781570435,
        0.06545279920101166,
        0.39690327644348145,
        0.44726359844207764,
        0.046764813363552094,
        1.143520712852478,
        -5.69208288192749,
        0.10513554513454437,
        1.7630399465560913,
        -3.835203170776367,
        0.2722979485988617,
        -0.08058290928602219,
        -2.5088815689086914,
        0.4030541777610779,
        -0.4798925817012787,
        -2.762620210647583,
        -0.401124507188797,
        0.32770976424217224,
        -1.973052740097046,
        0.4514961838722229,
        -0.22079353034496307,
        -3.0017173290252686,
        0.14627914130687714,
        0.24928507208824158,
        -3.0865607261657715,
        -0.2643960416316986,
        0.35103118419647217,
        -0.3532782196998596,
        0.06220291554927826,
        0.11868961155414581,
        -0.35072726011276245,
        -0.07983162254095078,
        0.2810934782028198,
        0.04972905293107033,
        -0.09572774171829224,
        0.00572632672265172,
        0.14186936616897583,
        -0.14975562691688538,
        -0.060899924486875534,
        0.23876331746578217,
        -0.06879237294197083,
        0.04814894124865532,
        0.26843172311782837,
        -0.009048640727996826,
        -0.1061568334698677,
        0.3180675208568573,
        -0.0670216754078865,
        0.06195104867219925,
        -0.03344111144542694,
        -0.025568731129169464,
        0.027684852480888367,
        -0.0742328017950058,
        0.01477059070020914,
        0.18431703746318817,
        -0.2222270369529724,
        -0.014065872877836227,
        -0.004006355069577694,
        -0.9099195003509521,
        0.10677658021450043,
        0.012793317437171936,
        1.0867997407913208,
        0.06454919278621674,
        -0.15304219722747803,
        1.2253210544586182,
        1.11737060546875,
        -0.5142682194709778,
        1.496517300605774,
        0.12335456907749176,
        0.5436303019523621,
        0.4580479562282562,
        0.5013078451156616,
        -0.5647037029266357,
        0.9512757658958435,
        -0.07822233438491821,
        0.025424648076295853,
        1.412073016166687,
        0.510658323764801,
        -0.728990912437439,
        2.715197801589966,
        -0.21804498136043549,
        0.47666850686073303,
        3.3062186241149902,
        -0.2957204580307007,
        0.6425790190696716,
        2.6712844371795654,
        -0.38522520661354065,
        0.14279259741306305,
        -0.02059035375714302,
        0.02273683249950409,
        -0.11137193441390991,
        0.2973923981189728,
        -0.018629081547260284,
        1.0144046545028687,
        0.07927530258893967,
        -0.08261612802743912,
        0.15570402145385742,
        -0.3389992415904999,
        0.05991290882229805,
        0.14123302698135376,
        0.03434918075799942,
        0.06494958698749542,
        0.0758400708436966,
        -0.4837859272956848,
        -0.11166948080062866,
        0.21096932888031006,
        -0.687482476234436,
        -0.10993357747793198,
        -0.0012414722004905343,
        0.7163500785827637,
        -0.019809046760201454,
        -0.12805993854999542,
        -2.3433990478515625,
        -0.08121558278799057,
        -1.7796202898025513,
        -4.44389533996582,
        -0.029303664341568947,
        -0.11864963173866272,
        0.019594388082623482,
        0.11105881631374359,
        -0.05768141150474548,
        0.14198294281959534,
        -0.011375218629837036,
        0.01235614437609911,
        1.0193639993667603,
        -0.48823413252830505,
        0.013132942840456963,
        1.6427817344665527,
        -0.5060296058654785,
        -0.062484752386808395,
        -2.7350590229034424,
        -0.554658055305481,
        -0.0022690920159220695,
        -6.70123291015625,
        2.3079257011413574,
        0.12598828971385956,
        -4.302196502685547,
        -0.1935873180627823,
        -0.26616647839546204,
        -2.047746181488037,
        -0.173235222697258,
        -0.0655129998922348,
        -1.8082358837127686,
        -0.09443443268537521,
        -0.00397417601197958,
        -0.639375627040863,
        -0.06374242901802063,
        0.04687908664345741,
        0.8701685070991516,
        -0.07925590872764587,
        -0.11614805459976196,
        1.4268357753753662,
        0.0015237927436828613,
        -0.5038516521453857,
        -2.702177047729492,
        -0.0023031379096210003,
        -0.09761229902505875,
        -3.4396591186523438,
        -0.04873986169695854,
        -0.2517031729221344,
        -11.297977447509766,
        0.08809880912303925,
        -0.08742992579936981,
        -13.294055938720703,
        -0.04391232132911682,
        0.10163330286741257,
        -12.922679901123047,
        -0.04971124231815338,
        0.07107583433389664,
        -13.777379035949707,
        -0.03285212814807892,
        0.09733130782842636,
        -13.424622535705566,
        0.177842915058136,
        0.12509821355342865,
        -13.906268119812012,
        -0.003530875314027071,
        0.07156188786029816,
        -0.15187814831733704,
        -0.10531648993492126,
        -0.04423820972442627,
        -1.287485122680664,
        0.05548739433288574,
        0.3863462805747986,
        -2.798666477203369,
        -2.2393441200256348,
        0.8623087406158447,
        -0.712289571762085,
        -0.7741305828094482,
        0.012352132238447666,
        0.7194074392318726,
        0.7826184034347534,
        0.2667718827724457,
        -0.14603379368782043,
        1.2108601331710815,
        -0.971760630607605,
        -0.44064608216285706,
        -0.740036129951477,
        -0.0982307642698288,
        -0.17905640602111816,
        -0.3897057771682739,
        -0.4584169089794159,
        0.5475872755050659,
        0.146675705909729,
        -0.9982244968414307,
        0.16529622673988342,
        0.014379422180354595,
        0.7835519909858704,
        0.09869460016489029,
        0.0777955949306488,
        0.11806328594684601,
        0.6756488084793091,
        0.09945084154605865,
        -1.5059385299682617,
        0.39547210931777954,
        0.10749944299459457,
        -0.13458432257175446,
        0.8573980927467346,
        -0.04026440158486366,
        -0.12808597087860107,
        -0.20203839242458344,
        0.10208550095558167,
        -0.1993190497159958,
        -0.8259990811347961,
        0.10831739753484726,
        2.964404344558716,
        0.4449949860572815,
        0.06008370593190193,
        -0.019548026844859123,
        2.3417882919311523,
        0.049955569207668304,
        -0.031236639246344566,
        1.8611795902252197,
        -0.05561734363436699,
        -0.06446736305952072,
        1.0750023126602173,
        -0.07701880484819412,
        -0.030093802139163017,
        0.22026287019252777,
        -0.1240423247218132,
        -0.03343602269887924,
        -1.4285601377487183,
        0.0581149160861969,
        -0.7358132004737854,
        -5.118428707122803,
        1.98530113697052,
        -0.7288771271705627,
        -6.0244975090026855,
        0.2738073170185089,
        0.42944642901420593,
        -1.9307312965393066,
        -0.5273298621177673,
        0.020018549636006355,
        -1.673506498336792,
        0.24084386229515076,
        0.5230549573898315,
        -1.2173799276351929,
        -0.6645393371582031,
        0.6665555834770203,
        -0.9949442148208618,
        -0.179635688662529,
        0.3591330945491791,
        -0.37953105568885803,
        -0.05793048068881035,
        0.6577050685882568,
        0.3893125355243683,
        -0.8251265287399292,
        0.38579896092414856,
        0.05044930428266525,
        0.04528780281543732,
        0.11200264096260071,
        0.03564382717013359,
        -0.06079794466495514,
        2.3923423290252686,
        -0.6429222226142883,
        -1.1507664918899536,
        1.6519864797592163,
        0.47677549719810486,
        -0.027342814952135086,
        0.04801392927765846,
        3.3336338996887207,
        0.9563408493995667,
        -2.0630016326904297,
        0.9086946249008179,
        0.18204638361930847,
        0.12704305350780487,
        -0.4046194851398468,
        -0.00495546031743288,
        -0.033291418105363846,
        0.25176870822906494,
        0.02142157219350338,
        -0.14612017571926117,
        0.14704404771327972,
        0.08417335897684097,
        0.0406683012843132,
        0.8798273205757141,
        0.03815731033682823,
        -0.012887849472463131,
        0.1137562096118927,
        -0.12480956315994263,
        0.007888808846473694,
        -0.17241540551185608,
        -0.040547825396060944,
        0.03706026449799538,
        2.8362350463867188,
        -0.4986218512058258,
        -0.11214761435985565,
        -17.00611686706543,
        0.7717407941818237,
        0.034114595502614975,
        -3.235866069793701,
        0.03443017229437828,
        -0.05101592466235161,
        0.9370251297950745,
        0.05193275958299637,
        0.08152395486831665,
        0.8094428777694702,
        -0.008557475171983242,
        0.05038553103804588,
        0.6651504039764404,
        0.024452492594718933,
        0.012333756312727928,
        1.404296636581421,
        -0.046090055257081985,
        -0.005475497338920832,
        2.4655158519744873,
        0.07363726943731308,
        -0.032450273633003235,
        -0.18405187129974365,
        -0.0007885247468948364,
        -0.11003517359495163,
        -0.27759280800819397,
        -0.002376452088356018,
        -0.03480949625372887,
        -0.8121504187583923,
        0.03880661353468895,
        -0.13574300706386566,
        0.23004896938800812,
        -0.016119785606861115,
        0.07163916528224945,
        0.660405158996582,
        -0.05854653939604759,
        0.04460374638438225,
        3.4656765460968018,
        -3.0864107608795166,
        -0.34592628479003906,
        1.7688168287277222,
        -0.13951358199119568,
        0.06786029785871506,
        3.2797577381134033,
        -0.044729191809892654,
        -0.0382048673927784,
        2.3931005001068115,
        -0.05238284170627594,
        0.010540501214563847,
        -2.4378068447113037,
        -0.06301799416542053,
        -0.09708695858716965,
        -0.9628751873970032,
        -0.12531842291355133,
        -0.0752793550491333,
        0.397738516330719,
        0.03188014030456543,
        -0.32075297832489014,
        1.0437557697296143,
        -0.614830732345581,
        0.08011121302843094,
        0.8881753087043762,
        0.08120901882648468,
        0.18775731325149536,
        0.6948149800300598,
        -0.17084519565105438,
        -0.41368257999420166,
        0.8789184093475342,
        -0.06322411447763443,
        -0.10349258780479431,
        0.5371568202972412,
        -0.6742233037948608,
        0.24184590578079224,
        0.5108575224876404,
        0.16466166079044342,
        -0.1713520586490631,
        0.1901133507490158,
        0.5025255084037781,
        1.1089147329330444,
        -0.9164316058158875,
        0.9097611308097839,
        -0.5339823961257935,
        -0.21887637674808502,
        0.021998509764671326,
        0.11322128772735596,
        -1.3873642683029175,
        -0.1156139001250267,
        -0.34260210394859314,
        -3.0143930912017822,
        -1.2146649360656738,
        1.217215657234192,
        -2.5003015995025635,
        0.22327961027622223,
        0.8132202625274658,
        -2.3922228813171387,
        -0.7586438655853271,
        0.20788149535655975,
        -2.5103912353515625,
        0.693585991859436,
        -0.7239366173744202,
        -2.863210916519165,
        0.4856095612049103,
        0.0668526217341423,
        -2.843721389770508,
        -0.8302937150001526,
        -0.06873948872089386,
        -3.8067595958709717,
        0.2195785492658615,
        1.2363640069961548,
        -3.790050506591797,
        -0.15538129210472107,
        -1.0975621938705444,
        -0.3036835789680481,
        0.06341974437236786,
        0.022582516074180603,
        0.7052558064460754,
        -0.06580255925655365,
        -0.7145807147026062,
        0.1510709673166275,
        -2.2934672832489014,
        -0.33280453085899353,
        -0.9913701415061951,
        -1.695224642753601,
        0.1374237984418869,
        -1.0834482908248901,
        -0.651048481464386,
        -0.45791885256767273,
        -3.4568934440612793,
        -1.3008671998977661,
        0.4034354090690613,
        -3.0379796028137207,
        -0.6243392825126648,
        0.1604650616645813,
        -3.126741886138916,
        -0.5273869037628174,
        0.43803906440734863,
        -3.3105456829071045,
        -0.017293211072683334,
        0.25097912549972534,
        -3.5150697231292725,
        -0.49746304750442505,
        0.27173641324043274,
        -0.23835821449756622,
        0.006993085145950317,
        0.1258310228586197,
        -0.02485518530011177,
        0.09982351958751678,
        -0.1281760036945343,
        -0.5143714547157288,
        0.0397445373237133,
        -0.4415954649448395,
        1.2778432369232178,
        -0.18534809350967407,
        -0.2607559263706207,
        -0.2419539839029312,
        -0.015446546487510204,
        -0.22777768969535828,
        1.8584613800048828,
        0.062206972390413284,
        2.4969372749328613,
        -0.08892570436000824,
        0.21036243438720703,
        -0.21057583391666412,
        0.3656197786331177,
        0.18356288969516754,
        0.1794176548719406,
        0.5317564010620117,
        -0.018342535942792892,
        0.004830970894545317,
        0.45227083563804626,
        0.05053557828068733,
        -0.08623333275318146,
        -1.035575270652771,
        -0.1095416322350502,
        0.07574257254600525,
        0.5413655638694763,
        -0.026868484914302826,
        -0.3538394570350647,
        -7.124234676361084,
        0.8362941145896912,
        1.2353472709655762,
        -1.0134303569793701,
        -0.5391356348991394,
        0.10198016464710236,
        -0.15802335739135742,
        0.5517723560333252,
        0.18258826434612274,
        0.5240979194641113,
        0.49345895648002625,
        0.6195306181907654,
        0.06376504898071289,
        -0.22309722006320953,
        0.5933471322059631,
        0.21622581779956818,
        -0.4731253385543823,
        0.0019915690645575523,
        1.2287721633911133,
        0.13659463822841644,
        0.12774571776390076,
        2.8293943405151367,
        -0.11687085777521133,
        -0.18813171982765198,
        0.5073271989822388,
        -0.01747269183397293,
        0.09706498682498932,
        -0.3155269920825958,
        -0.061859130859375,
        0.6680550575256348,
        1.5896313190460205,
        -0.06282689422369003,
        0.2438938319683075,
        1.386331558227539,
        0.06596006453037262,
        -0.11590598523616791,
        2.3482062816619873,
        -0.12123841047286987,
        -0.09781163185834885,
        1.3903529644012451,
        0.7414758801460266,
        2.408756732940674,
        -0.5018843412399292,
        -0.1760433465242386,
        -0.13202708959579468,
        -1.030340313911438,
        -0.08502698689699173,
        -0.05142836272716522,
        -0.4478803277015686,
        0.03531434014439583,
        -0.0018249498680233955,
        1.5382254123687744,
        -0.014331410638988018,
        -0.04052756726741791,
        -1.3974037170410156,
        0.057857319712638855,
        -0.02883264422416687,
        -1.3992688655853271,
        0.10827434062957764,
        -0.29909801483154297,
        -0.3992699682712555,
        -0.587434709072113,
        -0.14642901718616486,
        0.6243566870689392,
        0.5252270698547363,
        0.2805568277835846,
        0.3748203217983246,
        0.24608418345451355,
        -0.22801846265792847,
        1.657355785369873,
        -1.0651370286941528,
        0.30382832884788513,
        2.6761932373046875,
        0.9656559228897095,
        -0.1618921160697937,
        3.3504440784454346,
        1.080675721168518,
        -0.3047861158847809,
        3.204318046569824,
        0.051342833787202835,
        -0.22773349285125732,
        1.2691715955734253,
        -0.5963096022605896,
        0.35904085636138916,
        0.05382132530212402,
        -0.0786532610654831,
        0.007642835378646851,
        -0.1835012137889862,
        0.05736292898654938,
        -0.1390824168920517,
        -1.7578359842300415,
        -0.47294381260871887,
        -2.0336270332336426,
        1.4679657220840454,
        -0.3286530077457428,
        0.19706587493419647,
        1.9657315015792847,
        0.416503369808197,
        0.6576559543609619,
        2.5591585636138916,
        0.3427266478538513,
        0.4339984059333801,
        4.058651924133301,
        0.2202060967683792,
        0.542892575263977,
        3.9060475826263428,
        -0.17228391766548157,
        0.16760267317295074,
        2.626554012298584,
        0.051000893115997314,
        0.2484947144985199,
        -0.5991939306259155,
        -0.016722531989216805,
        0.15855203568935394,
        -0.9948752522468567,
        0.03202337026596069,
        -0.12221772968769073,
        -0.9624050259590149,
        -0.01962311565876007,
        -0.2117653340101242,
        -0.7682738304138184,
        -0.8217297792434692,
        0.5951390862464905,
        0.9421405792236328,
        0.290924996137619,
        0.104736328125,
        1.6324326992034912,
        -0.20369012653827667,
        0.44383668899536133,
        1.7048760652542114,
        1.4631437063217163,
        -0.6519889235496521,
        2.5463178157806396,
        -0.7288366556167603,
        0.049533870071172714,
        1.3127717971801758,
        0.13381138443946838,
        -0.34191879630088806,
        2.4961817264556885,
        -0.32057759165763855,
        0.07604478299617767,
        1.7614396810531616,
        -0.00992027297616005,
        -0.005647880490869284,
        -0.07541783154010773,
        -0.09220890700817108,
        0.047752633690834045,
        -0.4861082136631012,
        -0.023163914680480957,
        -0.30651456117630005,
        -0.8268623948097229,
        0.14221154153347015,
        -0.1773291528224945,
        3.408806800842285,
        -4.512477397918701,
        -0.3909442126750946,
        0.0069983056746423244,
        -0.0628206878900528,
        0.02092634327709675,
        0.3682798743247986,
        -0.0749145895242691,
        -0.11972622573375702,
        0.22872520983219147,
        -0.14116725325584412,
        0.10980679839849472,
        1.226324200630188,
        0.09348124265670776,
        0.09905656427145004,
        0.7611739635467529,
        -0.11063170433044434,
        -0.035758983343839645,
        -2.1436145305633545,
        -0.054851844906806946,
        -0.04417385160923004,
        -0.25116464495658875,
        -0.11332850158214569,
        -0.1293276995420456,
        -0.1409694105386734,
        -0.001516103744506836,
        0.3195057809352875,
        0.05042451620101929,
        -0.15346182882785797,
        0.032384492456912994,
        0.15337473154067993,
        -0.021395418792963028,
        -0.024464687332510948,
        0.06866917014122009,
        -0.11256114393472672,
        -0.038789935410022736,
        -0.13961884379386902,
        -0.02006228081882,
        -0.03774453327059746,
        -0.25267016887664795,
        -0.014729646034538746,
        -0.06912040710449219,
        -0.2722229063510895,
        -0.00802366528660059,
        -0.01981254667043686,
        -0.06318622082471848,
        -0.04388178884983063,
        -0.02105638012290001,
        -0.22434228658676147,
        -0.029345469549298286,
        0.048690520226955414,
        -0.394883930683136,
        -0.06475046277046204,
        -0.052378199994564056,
        -0.9048832058906555,
        0.07621072232723236,
        -0.3659036159515381,
        -11.517950057983398,
        0.3721045255661011,
        0.32588690519332886,
        -4.568545341491699,
        0.14809909462928772,
        0.13225975632667542,
        -1.5758754014968872,
        0.035744525492191315,
        0.04737068712711334,
        -1.277176022529602,
        0.14478227496147156,
        0.30161333084106445,
        -0.4175459146499634,
        0.08813218772411346,
        -0.0879119336605072,
        0.3807966411113739,
        0.10734032839536667,
        -0.15930896997451782,
        0.4918981194496155,
        -0.04355163872241974,
        -0.10957592725753784,
        2.4699063301086426,
        0.04813824221491814,
        -0.18853463232517242,
        -0.5634431838989258,
        -0.08143606781959534,
        -0.005322486162185669,
        -0.7790855765342712,
        -0.08517803996801376,
        0.5475683808326721,
        -3.727725028991699,
        0.2070283144712448,
        0.9564454555511475,
        -3.8961596488952637,
        -1.648776888847351,
        -0.6180205941200256,
        -3.605750560760498,
        1.024335503578186,
        0.4019671380519867,
        -2.1781318187713623,
        0.16479931771755219,
        1.087822437286377,
        -3.3953988552093506,
        -0.28532111644744873,
        -0.1456572264432907,
        -3.531527280807495,
        -0.4650228023529053,
        -1.012491226196289,
        -3.8104679584503174,
        -1.039764642715454,
        0.239607572555542,
        -4.056713104248047,
        0.09530533105134964,
        -1.3775385618209839,
        -1.5821032524108887,
        0.11208741366863251,
        -0.016245096921920776,
        -0.7327733039855957,
        -0.02669116109609604,
        -0.19458213448524475,
        0.8829236030578613,
        0.31356456875801086,
        0.44673818349838257,
        -0.05484139546751976,
        -1.079168677330017,
        -0.1771126389503479,
        1.0681803226470947,
        -0.08165423572063446,
        0.3563117980957031,
        1.7167810201644897,
        0.19988539814949036,
        0.5517064332962036,
        2.065350294113159,
        -1.2526707649230957,
        -0.4656478762626648,
        1.4745910167694092,
        0.845546305179596,
        0.45816200971603394,
        1.1023303270339966,
        0.7565796971321106,
        0.50620436668396,
        0.4980451166629791,
        0.2125658094882965,
        0.7222431302070618,
        0.1790471225976944,
        -0.09901538491249084,
        0.09068483114242554,
        0.1974271833896637,
        -0.06961749494075775,
        -0.07593096792697906,
        -0.47566482424736023,
        -0.3980429768562317,
        0.0071486118249595165,
        -0.07176020741462708,
        -0.272510290145874,
        -0.10598529875278473,
        1.5695300102233887,
        -0.4695374667644501,
        -0.040988218039274216,
        5.4764180183410645,
        2.7819390296936035,
        0.2923314869403839,
        2.5742135047912598,
        0.0030490485951304436,
        -0.009528919123113155,
        2.451319694519043,
        0.027491986751556396,
        0.002249439712613821,
        1.9239507913589478,
        0.0021726861596107483,
        -0.005045556463301182,
        0.5199624300003052,
        -0.016591697931289673,
        -0.012982519343495369,
        -0.2043464630842209,
        0.07378067076206207,
        -0.026505395770072937,
        0.036313459277153015,
        -0.027405694127082825,
        -0.07390384376049042,
        -0.4247431755065918,
        -0.1642354279756546,
        0.18634113669395447,
        -2.655660629272461,
        0.05382232367992401,
        -0.33424365520477295,
        -9.195589065551758,
        -1.210374355316162,
        1.9590682983398438,
        -7.81769323348999,
        0.06284897774457932,
        -0.2505013644695282,
        -7.233860969543457,
        0.09813578426837921,
        -0.15677595138549805,
        -7.223470687866211,
        0.029381683096289635,
        -0.1341642588376999,
        -7.522535800933838,
        0.5138937830924988,
        -0.08899161964654922,
        -7.184269428253174,
        -0.10608316212892532,
        -0.32608136534690857,
        -0.6868877410888672,
        0.09205706417560577,
        -0.07629995048046112,
        -0.39762502908706665,
        -0.10193801671266556,
        0.6708173155784607,
        -3.1748154163360596,
        -0.7849953770637512,
        -0.45720231533050537,
        -4.6141510009765625,
        -0.9843310713768005,
        -1.1721022129058838,
        -2.397874116897583,
        0.5418970584869385,
        1.1133285760879517,
        -3.2995688915252686,
        -0.5981347560882568,
        -0.9576743841171265,
        -1.8946142196655273,
        1.0586631298065186,
        0.3831380009651184,
        -2.1019248962402344,
        -0.16668981313705444,
        0.47506797313690186,
        -2.2597460746765137,
        -0.45582953095436096,
        0.48859110474586487,
        -1.633516788482666,
        -0.22617162764072418,
        0.757862389087677,
        0.013942371122539043,
        -0.024374574422836304,
        -0.12659110128879547,
        0.9918321371078491,
        0.0163688063621521,
        -1.7557499408721924,
        -0.5449375510215759,
        0.010004433803260326,
        0.04464296996593475,
        0.4956706762313843,
        -0.1042429655790329,
        0.010270928032696247,
        0.6680499315261841,
        -0.2768417298793793,
        2.802140235900879,
        1.2384045124053955,
        -0.048425037413835526,
        -0.10665518045425415,
        0.35240113735198975,
        -0.0757313221693039,
        -0.06598957628011703,
        -0.011573447845876217,
        -0.11418399214744568,
        -0.04321667551994324,
        -0.050178252160549164,
        0.0323474258184433,
        -0.010489242151379585,
        2.452317237854004,
        -0.009027667343616486,
        -0.011336639523506165,
        -1.795588731765747,
        0.07639746367931366,
        -0.10838150233030319,
        -0.9793986678123474,
        0.09719857573509216,
        -0.14102807641029358,
        -0.15595847368240356,
        0.3054905831813812,
        0.6938924193382263,
        -1.9414653778076172,
        -1.0053402185440063,
        0.9095419645309448,
        -1.1416935920715332,
        -1.7487090826034546,
        -0.2642103135585785,
        -1.3180310726165771,
        0.17542606592178345,
        1.2772563695907593,
        -0.8125225305557251,
        -0.8715034127235413,
        0.19806942343711853,
        -1.5880030393600464,
        -0.20801332592964172,
        0.43766289949417114,
        -1.3502602577209473,
        0.894462525844574,
        0.7863134145736694,
        -1.4735864400863647,
        0.3037002384662628,
        0.404805064201355,
        -0.39948680996894836,
        0.047631144523620605,
        0.01713337004184723,
        -0.87539142370224,
        0.1237025111913681,
        0.37274956703186035,
        -13.803812026977539,
        0.15951481461524963,
        -0.02942412719130516,
        -8.795415878295898,
        0.07353705912828445,
        0.0038689011707901955,
        -5.2314534187316895,
        -0.1376875638961792,
        -0.03268181160092354,
        -4.539713382720947,
        0.00907898135483265,
        -0.10730049759149551,
        -4.038454532623291,
        -0.12720642983913422,
        -0.03726696968078613,
        -4.905859470367432,
        -0.019843798130750656,
        -0.05537590757012367,
        -5.103134632110596,
        -0.05291690304875374,
        -0.007430556230247021,
        -5.206757068634033,
        0.015585237182676792,
        0.030240880325436592,
        0.49983343482017517,
        0.10476671159267426,
        0.051267072558403015,
        0.8136367797851562,
        0.0014661550521850586,
        -0.7909348011016846,
        -2.608839988708496,
        -0.6171613335609436,
        -0.16055116057395935,
        -9.988265037536621,
        0.2495785653591156,
        -0.014149713329970837,
        -4.643686294555664,
        -0.0667533352971077,
        0.21807651221752167,
        -4.552056312561035,
        -0.3879943788051605,
        -0.18133404850959778,
        -4.80289363861084,
        0.08892807364463806,
        -0.07516999542713165,
        -3.643671989440918,
        -0.2158980667591095,
        -0.14028893411159515,
        -3.1677563190460205,
        -0.09313011169433594,
        -0.07064307481050491,
        -0.7994281649589539,
        0.048647310584783554,
        -0.212636336684227,
        -0.7340392470359802,
        0.05837535858154297,
        0.007448107004165649,
        -1.5496667623519897,
        0.10152795910835266,
        0.161387100815773,
        -0.7907162308692932,
        0.034494366496801376,
        0.1477130949497223,
        -0.018907973542809486,
        -0.06483117491006851,
        0.10064778476953506,
        0.3743606507778168,
        0.04761973395943642,
        0.07596883922815323,
        -0.11036033183336258,
        0.16618037223815918,
        0.3648686408996582,
        -0.9522787928581238,
        -0.014456101693212986,
        0.41432884335517883,
        -1.4933043718338013,
        -0.013236881233751774,
        -0.01115437038242817,
        -8.12639045715332,
        -0.013535873033106327,
        0.05322948470711708,
        -21.408222198486328,
        -0.10075467079877853,
        -0.19170792400836945,
        0.18735633790493011,
        -0.06381785869598389,
        -0.025260210037231445,
        -0.10807906836271286,
        0.030227214097976685,
        -0.6292229294776917,
        1.5616625547409058,
        0.08021101355552673,
        0.2517927885055542,
        -4.354006290435791,
        -0.2572999596595764,
        -0.016690513119101524,
        -14.514557838439941,
        -0.026583930477499962,
        -0.08731529116630554,
        -13.31177806854248,
        0.12268532067537308,
        -0.011913408525288105,
        -10.608081817626953,
        0.04187308996915817,
        -0.015340620651841164,
        -10.185079574584961,
        0.005582354497164488,
        0.11581141501665115,
        -9.958827018737793,
        0.06892819702625275,
        -0.024609802290797234,
        -12.233602523803711,
        0.038238298147916794,
        0.07052887231111526,
        -0.3462742567062378,
        -0.0027692168951034546,
        0.0422915518283844,
        0.27446702122688293,
        -0.054824307560920715,
        -1.915811538696289,
        2.5104262828826904,
        -0.9999608993530273,
        0.05796448513865471,
        1.376775860786438,
        -0.5281441807746887,
        0.36532312631607056,
        1.0914506912231445,
        0.4186728596687317,
        0.04324568435549736,
        1.7656608819961548,
        0.15965667366981506,
        -0.050166115164756775,
        2.4496397972106934,
        -0.011360300704836845,
        -0.033195920288562775,
        1.9556487798690796,
        0.19799675047397614,
        0.09797503799200058,
        3.118217945098877,
        -0.08315927535295486,
        0.012002257630228996,
        4.255770683288574,
        -0.15110385417938232,
        0.1312544196844101,
        -3.1280622482299805,
        0.12109352648258209,
        -0.019094832241535187,
        -1.1859710216522217,
        -0.09930066019296646,
        -0.48039916157722473,
        0.005257994867861271,
        0.3544869124889374,
        0.6569821834564209,
        0.196466863155365,
        -1.1403084993362427,
        -0.06053731217980385,
        0.019515445455908775,
        0.5868791937828064,
        -0.6240030527114868,
        0.5888059735298157,
        0.43901386857032776,
        -0.44119182229042053,
        1.2030763626098633,
        -1.5241795778274536,
        -0.11814866214990616,
        0.9849759340286255,
        -0.7653228044509888,
        -0.18130789697170258,
        1.0000544786453247,
        0.30670055747032166,
        -0.06914199888706207,
        0.4031773507595062,
        -0.6509405374526978,
        0.5484601259231567,
        -1.3894299268722534,
        0.037926480174064636,
        -0.052585043013095856,
        -0.7819110751152039,
        -0.1294918656349182,
        1.2199009656906128,
        -1.0619754791259766,
        -3.0250346660614014,
        -0.8156993985176086,
        0.10095474123954773,
        -0.48055559396743774,
        0.6602221727371216,
        -0.08966387808322906,
        0.5601806044578552,
        0.6477708220481873,
        0.29671236872673035,
        0.44753170013427734,
        0.6518377065658569,
        0.07415473461151123,
        0.03798384591937065,
        0.5526838898658752,
        -0.4850147068500519,
        0.05184382572770119,
        -0.6274383664131165,
        -1.185375452041626,
        0.8234989643096924,
        -1.540956735610962,
        -1.1686785221099854,
        0.4319210350513458,
        0.25061848759651184,
        0.014383884146809578,
        0.008044108748435974,
        -0.10941296815872192,
        -0.4836030900478363,
        -0.0367940291762352,
        0.8920941352844238,
        -0.6095923185348511,
        -0.11761900782585144,
        -0.26362234354019165,
        0.7657743096351624,
        -0.05349106341600418,
        -0.020042434334754944,
        1.2669621706008911,
        -0.018956197425723076,
        -0.3405194878578186,
        1.4391287565231323,
        -0.13612398505210876,
        -0.08340159803628922,
        5.433574199676514,
        1.68488609790802,
        1.1061512231826782,
        3.2783329486846924,
        0.03122035413980484,
        -0.004503197502344847,
        3.8095555305480957,
        0.039773374795913696,
        0.24096304178237915,
        3.845216751098633,
        -0.09983228892087936,
        -0.2876916527748108,
        -0.023844800889492035,
        -0.062488168478012085,
        0.1157439798116684,
        -0.6596497893333435,
        -0.08779915422201157,
        0.12418439984321594,
        -0.371173232793808,
        -0.34499233961105347,
        0.32120129466056824,
        -10.882399559020996,
        1.5594465732574463,
        -0.9580121636390686,
        -8.44459342956543,
        -0.4721059501171112,
        0.314485639333725,
        -6.984978199005127,
        -0.8016150593757629,
        0.12530845403671265,
        -6.215893745422363,
        -0.1746087223291397,
        0.02702953852713108,
        -4.828437805175781,
        0.003499243874102831,
        0.0058983503840863705,
        -5.972269058227539,
        -0.49628421664237976,
        0.13332824409008026,
        -4.605477333068848,
        -0.23067189753055573,
        -0.03384418413043022,
        -0.7000203728675842,
        -0.12144242227077484,
        -0.13358914852142334,
        -1.9556537866592407,
        -0.03639119118452072,
        1.2950425148010254,
        -0.09096421301364899,
        -0.5107513070106506,
        1.6529943943023682,
        -0.39516809582710266,
        0.2517956495285034,
        0.9190224409103394,
        -0.763946533203125,
        -1.530488133430481,
        0.03577496483922005,
        0.14671695232391357,
        -0.23114202916622162,
        0.6065091490745544,
        -0.6821128726005554,
        0.8116424679756165,
        0.9808886647224426,
        -2.380359172821045,
        0.19613942503929138,
        -0.7244431972503662,
        -3.2725887298583984,
        -0.5466004610061646,
        -0.6974667310714722,
        -3.361901044845581,
        0.06402155756950378,
        -0.5396426320075989,
        0.2335813045501709,
        -0.010726943612098694,
        -0.03777316212654114,
        0.07165827602148056,
        -0.03480619937181473,
        0.9903963208198547,
        1.6183992624282837,
        -0.4479939937591553,
        -2.6509366035461426,
        0.24396954476833344,
        -1.6753782033920288,
        1.5382938385009766,
        -0.9949823021888733,
        -0.11770989000797272,
        0.14051476120948792,
        -1.2223830223083496,
        -0.17847052216529846,
        -0.009782380424439907,
        -1.923393726348877,
        0.013298390433192253,
        0.0019782083109021187,
        -1.9003571271896362,
        -0.15611645579338074,
        0.04693858325481415,
        -2.187056303024292,
        -0.022212263196706772,
        0.1508628875017166,
        -0.07394756376743317,
        -0.06145912781357765,
        0.10820117592811584,
        -2.2728307247161865,
        0.07849052548408508,
        0.02595803141593933,
        -0.8851320147514343,
        0.0841507762670517,
        0.13877592980861664,
        -1.6346088647842407,
        0.12918202579021454,
        1.0586600303649902,
        -1.2828232049942017,
        0.5454698801040649,
        -0.8395338654518127,
        -0.116071417927742,
        -1.7058188915252686,
        -0.047513604164123535,
        -0.1563953459262848,
        1.3478225469589233,
        0.40347787737846375,
        -0.051883794367313385,
        -1.0761969089508057,
        0.5848054885864258,
        0.048621438443660736,
        -0.9856446981430054,
        -1.0127134323120117,
        -0.38236308097839355,
        -0.8159858584403992,
        0.14579257369041443,
        -1.1120589971542358,
        -0.43460628390312195,
        -0.8005841374397278,
        -1.9160704612731934,
        0.08745667338371277,
        -0.09883138537406921,
        0.6161896586418152,
        0.05779354274272919,
        0.42412710189819336,
        -0.580435037612915,
        -0.433835506439209,
        -0.8524269461631775,
        -1.2552659511566162,
        -1.1263333559036255,
        -0.41321128606796265,
        -0.20279362797737122,
        -0.1572989821434021,
        -0.1834585964679718,
        -0.1015285775065422,
        0.43404942750930786,
        -0.518803060054779,
        -0.025279654189944267,
        -0.8561367988586426,
        -0.31837448477745056,
        0.8565230965614319,
        -0.14808903634548187,
        -0.5360254049301147,
        0.6004514098167419,
        0.08186078816652298,
        -0.10477970540523529,
        -1.2918134927749634,
        0.3720187246799469,
        0.46382662653923035,
        -0.33654314279556274,
        0.0829419195652008,
        -0.13028647005558014,
        -0.175154909491539,
        0.047802314162254333,
        0.6030965447425842,
        -0.07461851835250854,
        -0.21418526768684387,
        0.08387380838394165,
        -0.3784506022930145,
        -0.06549876183271408,
        0.004983958788216114,
        -0.7557045221328735,
        -0.18239685893058777,
        0.23734460771083832,
        -0.870461106300354,
        0.11758554726839066,
        -0.05974110588431358,
        -0.6888023614883423,
        0.044225748628377914,
        -0.006378346588462591,
        -0.8037967681884766,
        -0.03674471378326416,
        0.02537955529987812,
        -0.6457374691963196,
        -0.11493801325559616,
        0.014003760181367397,
        -0.5991545915603638,
        -0.14068275690078735,
        0.016955707222223282,
        -0.6243893504142761,
        0.0011446624994277954,
        0.10910056531429291,
        -1.7311075925827026,
        -0.10019658505916595,
        0.361296683549881,
        -2.5774967670440674,
        -0.14376281201839447,
        1.0819448232650757,
        -2.596543550491333,
        -0.049836043268442154,
        0.31251031160354614,
        -3.400294065475464,
        0.7381104230880737,
        -0.07020726054906845,
        -3.491408586502075,
        -0.5794817209243774,
        -0.16797098517417908,
        -2.8131511211395264,
        0.3479989469051361,
        0.14217153191566467,
        -2.7413382530212402,
        -1.5314085483551025,
        1.2526764869689941,
        -2.598634719848633,
        0.6993829607963562,
        0.5258278250694275,
        -3.0940723419189453,
        0.5205280780792236,
        -0.9666241407394409,
        -0.604949414730072,
        -0.13125094771385193,
        -0.037762872874736786,
        -0.9778427481651306,
        -0.11211414635181427,
        0.09154796600341797,
        -1.4159005880355835,
        0.4919309914112091,
        -0.19421057403087616,
        -0.5193773508071899,
        -0.7601774334907532,
        0.1522645801305771,
        -0.9291432499885559,
        -1.7299009561538696,
        0.349532812833786,
        -2.635091543197632,
        0.06509748846292496,
        0.14630286395549774,
        -2.2489185333251953,
        1.0359530448913574,
        0.8381520509719849,
        -2.6912500858306885,
        -0.10126350075006485,
        -0.020310699939727783,
        -2.3372864723205566,
        0.2923717498779297,
        -1.0621070861816406,
        -1.2611360549926758,
        0.3617202341556549,
        0.6274116635322571,
        -0.29426661133766174,
        0.08656531572341919,
        -0.08086094260215759,
        -0.5471002459526062,
        -0.0032633841037750244,
        0.16709667444229126,
        1.4118598699569702,
        0.11223623156547546,
        -0.025131884962320328,
        -0.8105993866920471,
        0.0194099023938179,
        -0.10059395432472229,
        -1.8271225690841675,
        0.027634231373667717,
        -0.03719856217503548,
        -2.4310879707336426,
        0.08463089168071747,
        -0.004898858722299337,
        -5.013391017913818,
        0.02613665908575058,
        0.03963236138224602,
        -8.736418724060059,
        0.12748783826828003,
        0.0010981862433254719,
        -14.679431915283203,
        0.07647974789142609,
        -0.009312055073678493,
        -25.101037979125977,
        -0.010532363317906857,
        -0.041776545345783234,
        -1.6618996858596802,
        -0.0682736486196518,
        -0.11520016193389893,
        -1.8250354528427124,
        -0.012391574680805206,
        1.2325190305709839,
        -1.6626977920532227,
        -1.8235752582550049,
        -0.9521812200546265,
        -2.3363873958587646,
        0.7404322624206543,
        -0.903699517250061,
        -3.323185443878174,
        0.5108395218849182,
        0.37958067655563354,
        -3.509045124053955,
        0.3607550859451294,
        1.0278538465499878,
        -3.692842483520508,
        0.6793866157531738,
        -0.09473689645528793,
        -4.232170581817627,
        -1.5847136974334717,
        1.041274070739746,
        -3.8361406326293945,
        0.23339088261127472,
        0.740351676940918,
        -4.059010028839111,
        -0.6596337556838989,
        0.15512461960315704,
        -0.5900185108184814,
        0.022820383310317993,
        -0.008251592516899109,
        -2.8277435302734375,
        0.12202082574367523,
        0.5986636281013489,
        -0.8606504201889038,
        -2.478713035583496,
        1.3169718980789185,
        -2.258586883544922,
        1.4872640371322632,
        -0.7208781242370605,
        -1.0387969017028809,
        -0.45393747091293335,
        0.07378654927015305,
        -0.89654541015625,
        0.6075741648674011,
        -0.08899343758821487,
        -0.19862329959869385,
        -0.1675133854150772,
        0.7984878420829773,
        -0.9164848923683167,
        0.3229617774486542,
        -0.4214168190956116,
        -1.3801082372665405,
        -0.09829521924257278,
        1.0359294414520264,
        -1.4767569303512573,
        0.19850373268127441,
        0.20912158489227295,
        -0.4276086091995239,
        0.0839136391878128,
        0.11277143657207489,
        -0.8810691237449646,
        0.03760991990566254,
        2.5326247215270996,
        0.9423453211784363,
        1.5901107788085938,
        2.531381607055664,
        2.1102631092071533,
        -0.0922316387295723,
        -0.02558290585875511,
        0.43591293692588806,
        0.4548678398132324,
        -0.061480823904275894,
        0.46508529782295227,
        0.021330442279577255,
        0.27732929587364197,
        -0.17415733635425568,
        -0.09431822597980499,
        -0.09988363832235336,
        0.8696945309638977,
        0.02120673842728138,
        -0.08731721341609955,
        1.3547065258026123,
        0.18329739570617676,
        0.02184440754354,
        4.951218128204346,
        -0.0120833870023489,
        -0.002889463910833001,
        -0.3523999750614166,
        -0.061991117894649506,
        -0.11102482676506042,
        -0.2907813787460327,
        0.12655262649059296,
        0.30549487471580505,
        -0.13697335124015808,
        -0.18774332106113434,
        -0.12097445130348206,
        -0.03881046548485756,
        0.05713953822851181,
        -0.03505867347121239,
        -0.03064817190170288,
        -0.04590336233377457,
        0.0696147084236145,
        0.2776460647583008,
        -0.011486725881695747,
        0.04525386914610863,
        0.14514440298080444,
        -0.054213106632232666,
        -0.06895415484905243,
        0.22328585386276245,
        -0.035608142614364624,
        0.004937777761369944,
        0.16664646565914154,
        -0.04133368283510208,
        -0.004570141434669495,
        0.21211417019367218,
        -0.0009340561809949577,
        0.08069375157356262,
        -0.41614821553230286,
        -0.11104117333889008,
        -0.11011488735675812,
        -0.5263550877571106,
        0.021720245480537415,
        0.023963654413819313,
        -0.9387663006782532,
        -0.559201717376709,
        0.0006963619962334633,
        -0.796832799911499,
        -0.2769717276096344,
        0.15376566350460052,
        -0.6780877709388733,
        -0.19589179754257202,
        0.15386031568050385,
        -0.23840123414993286,
        -0.01609187014400959,
        0.021831165999174118,
        0.039244145154953,
        -0.16308195888996124,
        0.019273949787020683,
        0.34536048769950867,
        -0.05075382813811302,
        -0.001827396103180945,
        1.0575268268585205,
        0.002498045563697815,
        -0.12010613828897476,
        1.3580256700515747,
        -0.28934988379478455,
        0.09973432123661041,
        -2.043332815170288,
        -0.0014683455228805542,
        -0.07085276395082474,
        -1.3893275260925293,
        0.04960829019546509,
        0.5292345285415649,
        -1.2395248413085938,
        -1.509405255317688,
        0.5162382125854492,
        -0.4395987391471863,
        -0.8705980181694031,
        -0.4279511272907257,
        -0.052981793880462646,
        0.6905957460403442,
        0.5424496531486511,
        -0.4771089553833008,
        -0.5633224248886108,
        0.1107308566570282,
        0.4426491856575012,
        -1.0325628519058228,
        0.30365487933158875,
        -0.18936459720134735,
        -1.4565290212631226,
        -0.4711093604564667,
        -0.4589492380619049,
        0.5511695146560669,
        -0.17472413182258606,
        -0.013141235336661339,
        1.2091786861419678,
        0.679539144039154,
        -0.09273867309093475,
        -0.00012402236461639404,
        -0.10231390595436096,
        1.3859113454818726,
        -0.08071562647819519,
        0.9196823239326477,
        -0.26402512192726135,
        -0.7490845322608948,
        0.4411979615688324,
        0.783149778842926,
        -0.4488257169723511,
        -0.16952000558376312,
        -0.08809678256511688,
        -0.9319489002227783,
        1.1091150045394897,
        1.1820927858352661,
        0.1405336707830429,
        -0.23420625925064087,
        2.414891242980957,
        0.6202978491783142,
        -0.5616097450256348,
        2.9786109924316406,
        0.5622391700744629,
        -0.8710887432098389,
        3.3526453971862793,
        0.16583815217018127,
        -0.1974027156829834,
        2.625119686126709,
        0.21922938525676727,
        -0.055281441658735275,
        -0.569612443447113,
        0.12056545913219452,
        -0.0057892948389053345,
        -1.2492144107818604,
        0.02143774926662445,
        0.2518705129623413,
        -0.7071341276168823,
        1.4409563541412354,
        -0.857722818851471,
        -0.19462506473064423,
        -1.4082359075546265,
        0.6673828959465027,
        -0.05801377072930336,
        -0.7429497241973877,
        0.500174880027771,
        1.1005940437316895,
        -0.9231979250907898,
        -0.25747379660606384,
        0.02920694649219513,
        -1.2523738145828247,
        0.18597984313964844,
        1.2640258073806763,
        -0.6801391839981079,
        0.12009402364492416,
        0.9864534735679626,
        -0.37074556946754456,
        -0.2992386817932129,
        0.9230517148971558,
        0.3550993800163269,
        0.6153312921524048,
        -0.018644049763679504,
        -0.018936887383461,
        -0.020128533244132996,
        -1.2252784967422485,
        0.12306125462055206,
        0.9808900356292725,
        -1.0177525281906128,
        0.669701337814331,
        -0.8025547862052917,
        0.6566962003707886,
        -1.660943627357483,
        -0.007361169438809156,
        0.8459483981132507,
        0.18616023659706116,
        0.14185763895511627,
        2.074871778488159,
        -1.2396830320358276,
        0.9424929618835449,
        2.8809971809387207,
        -0.001995773520320654,
        1.1158256530761719,
        1.0418275594711304,
        -0.6519860029220581,
        1.0573108196258545,
        0.8069376349449158,
        0.5927518010139465,
        -0.1304190456867218,
        -0.41083279252052307,
        0.5688680410385132,
        -0.0132652148604393,
        0.027333557605743408,
        0.07379089295864105,
        0.09433189034461975,
        1.3481167554855347,
        0.11620856821537018,
        1.5949749946594238,
        2.291991949081421,
        1.8890161514282227,
        -1.5526753664016724,
        1.932845950126648,
        0.01094984170049429,
        -0.1428505778312683,
        -1.0289323329925537,
        0.0366947203874588,
        0.09533709287643433,
        -0.6203119158744812,
        0.09890773147344589,
        0.049728214740753174,
        -0.4640609622001648,
        0.026785733178257942,
        0.0228896364569664,
        -0.8152210116386414,
        0.09745784103870392,
        -0.0501461885869503,
        -0.7943371534347534,
        -0.025123709812760353,
        -0.040804363787174225,
        0.42397671937942505,
        0.03294329345226288,
        0.00848489347845316,
        -0.3287961184978485,
        -0.002268359065055847,
        0.05007654428482056,
        -0.14598765969276428,
        -0.11518020927906036,
        0.20489813387393951,
        0.12873196601867676,
        -0.0919017344713211,
        0.024027539417147636,
        0.30239975452423096,
        -0.10125236958265305,
        0.10847227275371552,
        0.4318625032901764,
        -0.1425313800573349,
        -0.011658589355647564,
        0.38427314162254333,
        -0.11541754752397537,
        -0.020997371524572372,
        0.09990080446004868,
        0.02503538504242897,
        -0.02761686034500599,
        0.032275278121232986,
        0.023089749738574028,
        0.024668168276548386,
        -0.01842123456299305,
        -0.09456275403499603,
        0.06916265189647675,
        -0.21119055151939392,
        -0.025032902136445045,
        0.025284171104431152,
        -1.591070294380188,
        -0.014020934700965881,
        0.04374492168426514,
        -0.4176405072212219,
        -0.05985276401042938,
        0.027125054970383644,
        -0.8654130697250366,
        -1.6531891822814941,
        0.4936619699001312,
        2.1466753482818604,
        0.32557669281959534,
        -0.209825798869133,
        2.423661947250366,
        -1.1993836164474487,
        0.8017675876617432,
        0.03392554819583893,
        -0.5791500210762024,
        1.0520517826080322,
        0.22407370805740356,
        0.9728761315345764,
        -0.8656283617019653,
        0.13996827602386475,
        -0.41701894998550415,
        0.3246527314186096,
        -0.6412598490715027,
        -0.3490365147590637,
        -0.6535096764564514,
        -0.2316376268863678,
        0.1559281349182129,
        0.8814747929573059,
        -0.07138501107692719,
        -0.12048237025737762,
        -0.13317091763019562,
        0.3358471691608429,
        -0.13157832622528076,
        0.11235120892524719,
        2.1207449436187744,
        3.6558008193969727,
        0.045143503695726395,
        -1.8261390924453735,
        0.03256851062178612,
        -0.050069112330675125,
        -0.6081830859184265,
        -0.06103627383708954,
        0.0058781723491847515,
        -0.28557950258255005,
        -0.008112818002700806,
        0.044725123792886734,
        1.6939728260040283,
        0.025356117635965347,
        0.03399760648608208,
        2.4653022289276123,
        0.071161188185215,
        -0.06046557426452637,
        -0.6384607553482056,
        0.009270589798688889,
        -0.03559790179133415,
        -4.785735607147217,
        -0.12769168615341187,
        -0.0286913700401783,
        -0.10656560957431793,
        0.09965027868747711,
        -0.11753319203853607,
        -2.053635835647583,
        -0.04242970049381256,
        1.0593218803405762,
        -1.6726840734481812,
        -1.0593669414520264,
        -0.8625398278236389,
        0.2362697422504425,
        0.12070465087890625,
        -0.45444193482398987,
        -2.548337697982788,
        0.09243490546941757,
        0.3011455237865448,
        -2.6738977432250977,
        0.36440104246139526,
        1.7242095470428467,
        -2.1040279865264893,
        -1.015896201133728,
        0.10855024307966232,
        -2.094346523284912,
        -0.22706517577171326,
        -0.25826361775398254,
        -1.0950556993484497,
        0.3533470928668976,
        -0.6277264356613159,
        -1.4272189140319824,
        0.14565066993236542,
        -0.7220672369003296,
        -0.9663984775543213,
        0.021552935242652893,
        -0.036383338272571564,
        -0.4245928227901459,
        0.05446755886077881,
        2.2103431224823,
        -0.4592776894569397,
        -0.11580201238393784,
        -0.29635322093963623,
        -0.2586936354637146,
        -0.8196114301681519,
        -0.8864476680755615,
        -2.1359970569610596,
        1.110063076019287,
        0.6521852612495422,
        -1.0647684335708618,
        -0.3996579945087433,
        0.8698908686637878,
        -0.539728045463562,
        0.7546160221099854,
        -0.07794685661792755,
        0.09487230330705643,
        -0.6102396249771118,
        -0.8892257809638977,
        0.6916375756263733,
        0.5609427690505981,
        -0.5236780643463135,
        1.0140682458877563,
        -0.4393221139907837,
        -0.3952619731426239,
        -1.5233153104782104,
        0.12013973295688629,
        -0.1246970146894455,
        1.418864130973816,
        0.12124519050121307,
        2.396101474761963,
        1.7560023069381714,
        -0.26845934987068176,
        0.9281452894210815,
        1.4019739627838135,
        -1.6322468519210815,
        -0.6712377071380615,
        0.18174144625663757,
        -0.8374186754226685,
        -0.593066930770874,
        -0.4888831675052643,
        -0.6566901803016663,
        0.18045786023139954,
        -0.9084436297416687,
        0.23604294657707214,
        1.2522532939910889,
        -1.564701795578003,
        -0.9880382418632507,
        0.19222551584243774,
        -2.181171417236328,
        0.10036852955818176,
        -0.7466007471084595,
        -3.273703098297119,
        -1.1628412008285522,
        0.75299072265625,
        -1.0838797092437744,
        -0.0654667541384697,
        0.06774629652500153,
        0.023534253239631653,
        0.11804582178592682,
        1.0927844047546387,
        0.5209568738937378,
        -0.6063193082809448,
        1.3371694087982178,
        -1.2090152502059937,
        0.1970447599887848,
        0.1073126569390297,
        -1.2825181484222412,
        1.1275007724761963,
        -0.2976589798927307,
        -1.2835502624511719,
        0.3924921751022339,
        0.26705121994018555,
        -1.251474380493164,
        -0.1139822006225586,
        0.6655532717704773,
        -2.4818897247314453,
        -1.0351481437683105,
        0.2970438003540039,
        -2.3851773738861084,
        -1.2316175699234009,
        0.10020692646503448,
        -3.0597317218780518,
        -1.1151067018508911,
        -0.8901150822639465,
        0.4916054308414459,
        -0.0817040205001831,
        0.07707077264785767,
        -0.675881564617157,
        0.05548480153083801,
        2.43701171875,
        0.5668423771858215,
        0.11662610620260239,
        0.3661728799343109,
        -0.4757942855358124,
        0.8184038996696472,
        -0.13113626837730408,
        0.5056209564208984,
        2.013883352279663,
        -0.25346148014068604,
        -1.777886152267456,
        0.31217166781425476,
        -0.16821356117725372,
        -2.1739261150360107,
        0.14074860513210297,
        0.184329092502594,
        -1.8522822856903076,
        -0.019609205424785614,
        -0.021942216902971268,
        0.2220900058746338,
        -0.018372099846601486,
        -0.04113895446062088,
        4.8124003410339355,
        0.03700743988156319,
        0.0008564728777855635,
        0.9846978187561035,
        -0.12220334261655807,
        0.06423673033714294,
        1.6102890968322754,
        0.06234411895275116,
        -1.0206656455993652,
        2.265693187713623,
        0.7448365092277527,
        0.05004233866930008,
        0.8667427897453308,
        0.2770388722419739,
        0.148725688457489,
        -1.105589747428894,
        -0.13007164001464844,
        0.07535044103860855,
        -0.790307879447937,
        0.033055379986763,
        -0.0765354111790657,
        0.3487338721752167,
        -0.14849413931369781,
        0.17454709112644196,
        1.6711283922195435,
        0.0475313700735569,
        -0.10788930952548981,
        4.004109859466553,
        -0.13530175387859344,
        -0.10305096209049225,
        9.564980506896973,
        -0.050025854259729385,
        -0.1518571376800537,
        0.9227172136306763,
        -0.0011232942342758179,
        0.12217466533184052,
        1.0267976522445679,
        0.005175665020942688,
        -0.0871732234954834,
        4.46256685256958,
        0.2173236459493637,
        -0.0112209003418684,
        1.7541049718856812,
        0.006434097420424223,
        -0.26071199774742126,
        2.6430788040161133,
        -0.17039039731025696,
        -0.12461941689252853,
        3.1625473499298096,
        -0.07739047706127167,
        0.2770217955112457,
        4.172248840332031,
        -0.1455306112766266,
        0.09517289698123932,
        5.313182353973389,
        0.06160893663764,
        0.25813210010528564,
        2.77764892578125,
        0.07597467303276062,
        0.3341525197029114,
        -2.226715087890625,
        -0.14050477743148804,
        -0.027999272570014,
        -0.5600576996803284,
        0.07539233565330505,
        -0.08639578521251678,
        0.7688727974891663,
        0.0034199953079223633,
        -0.2182856649160385,
        -0.008221969939768314,
        -1.902849793434143,
        0.05180666968226433,
        -1.112352967262268,
        -1.9348013401031494,
        0.12064492702484131,
        0.07181717455387115,
        0.8822408318519592,
        0.09967607259750366,
        2.0192606449127197,
        0.7514880895614624,
        -0.0951758474111557,
        2.431838035583496,
        0.660639762878418,
        -0.17989805340766907,
        3.3015363216400146,
        0.3407965898513794,
        0.013071211986243725,
        3.1400303840637207,
        0.17370368540287018,
        0.07845180481672287,
        -1.4099534749984741,
        0.41282790899276733,
        -0.2505391836166382,
        -0.04530084505677223,
        0.07438541948795319,
        0.11938570439815521,
        0.41022592782974243,
        -0.06886382400989532,
        0.7410552501678467,
        1.3335093259811401,
        0.012171194888651371,
        -0.02505461685359478,
        -5.8549699783325195,
        0.3168249726295471,
        -2.4138402938842773,
        -3.63549542427063,
        -0.07273872196674347,
        0.49987688660621643,
        -2.3105201721191406,
        0.0009983711643144488,
        0.36874204874038696,
        -2.466902732849121,
        -0.014236190356314182,
        0.30006924271583557,
        -2.6871986389160156,
        -0.009801854379475117,
        0.07122687250375748,
        -2.01509952545166,
        0.026487600058317184,
        0.14324325323104858,
        -1.285947322845459,
        0.06827212870121002,
        0.047137998044490814,
        -0.16643424332141876,
        -0.11378742754459381,
        0.08761158585548401,
        -0.33055979013442993,
        0.08011595904827118,
        -0.205000638961792,
        -0.2888929545879364,
        0.34956803917884827,
        -1.4895882606506348,
        0.32509127259254456,
        0.3089568614959717,
        0.13875368237495422,
        -1.836423635482788,
        -0.9593836665153503,
        0.6081801652908325,
        -1.8071376085281372,
        -1.2143534421920776,
        0.6354891657829285,
        -2.231104850769043,
        0.17851634323596954,
        0.05457073822617531,
        -0.5691698789596558,
        0.535797655582428,
        0.7004163265228271,
        0.08801362663507462,
        -0.08131784945726395,
        -0.598714292049408,
        0.18588969111442566,
        -0.047504376620054245,
        0.8029252290725708,
        -1.6004375219345093,
        0.066359743475914,
        0.07639600336551666,
        -0.5361254215240479,
        -0.10476350784301758,
        1.1536831855773926,
        1.9432824850082397,
        -1.9610755443572998,
        0.5390109419822693,
        1.6316717863082886,
        0.6319096684455872,
        0.3972722589969635,
        1.8711657524108887,
        0.6092738509178162,
        -0.19230152666568756,
        2.2199459075927734,
        -1.4215370416641235,
        0.5948326587677002,
        1.8056424856185913,
        -0.38772863149642944,
        0.10960255563259125,
        0.4501006305217743,
        0.8286729454994202,
        0.145372673869133,
        0.6791579127311707,
        0.06512157618999481,
        0.5015842318534851,
        0.37258362770080566,
        -0.8556509017944336,
        -0.2903672456741333,
        -2.5329723358154297,
        0.010043531656265259,
        -0.042854852974414825,
        -0.8478579521179199,
        -0.025899052619934082,
        0.16695234179496765,
        -3.4402413368225098,
        0.4104077219963074,
        -0.07020353525876999,
        -1.2315484285354614,
        -0.026557279750704765,
        0.09479708969593048,
        1.5479722023010254,
        0.027659008279442787,
        0.21332600712776184,
        1.7386056184768677,
        -0.050413113087415695,
        0.04078768566250801,
        1.3290729522705078,
        0.09334945678710938,
        0.13029000163078308,
        0.2831670939922333,
        -0.17547915875911713,
        0.053216736763715744,
        -3.9945619106292725,
        0.07915536314249039,
        0.056934744119644165,
        -9.931412696838379,
        -0.09988861531019211,
        0.05600513145327568,
        -0.05219708010554314,
        0.10103796422481537,
        -0.0013584494590759277,
        -2.2676548957824707,
        0.021249309182167053,
        0.5613898038864136,
        -1.968685269355774,
        -0.6591785550117493,
        0.13801687955856323,
        -1.474560022354126,
        -0.5313794612884521,
        0.2178489863872528,
        1.2628684043884277,
        -0.31313902139663696,
        0.2814899981021881,
        0.8021220564842224,
        -0.1261352151632309,
        0.37210071086883545,
        -0.44951868057250977,
        -0.4480215907096863,
        0.21086637675762177,
        -0.10189282149076462,
        -0.09211856871843338,
        0.20335480570793152,
        4.625654220581055,
        0.03200002759695053,
        -0.00538118090480566,
        14.518377304077148,
        -0.1254756897687912,
        0.12363970279693604,
        -0.277264267206192,
        0.01303236186504364,
        -0.02744155377149582,
        -0.22909647226333618,
        0.022485673427581787,
        0.30959999561309814,
        0.20550327003002167,
        -0.14720113575458527,
        0.040361303836107254,
        0.00172383151948452,
        -0.06698103249073029,
        0.049757130444049835,
        -0.139576256275177,
        -0.05702647566795349,
        -0.029084645211696625,
        -0.25841087102890015,
        -0.039484791457653046,
        -0.12530606985092163,
        -0.18151310086250305,
        -0.09855815023183823,
        0.10172632336616516,
        -0.34830746054649353,
        0.06286881864070892,
        0.01694633439183235,
        -0.249881312251091,
        0.0014133445220068097,
        -0.0759926289319992,
        -0.28531596064567566,
        -0.02464398741722107,
        -0.023283200338482857,
        -0.9311871528625488,
        -0.12519040703773499,
        0.11251387000083923,
        1.4712063074111938,
        0.009602949023246765,
        0.05242602527141571,
        1.2513542175292969,
        1.0868266820907593,
        -0.43003320693969727,
        -1.6555876731872559,
        0.24060270190238953,
        -0.3471868336200714,
        -3.1394202709198,
        0.6170859336853027,
        -0.5169598460197449,
        -2.1426048278808594,
        -0.5450628399848938,
        0.1742086559534073,
        -2.8556737899780273,
        -0.09197287261486053,
        0.013967722654342651,
        -2.521454334259033,
        0.3064848780632019,
        0.09427701681852341,
        -2.031184196472168,
        0.7967061996459961,
        0.10453610867261887,
        -2.294762372970581,
        -0.1392742246389389,
        -0.308025598526001,
        -3.3573622703552246,
        -0.04816339164972305,
        0.12734012305736542,
        -0.20304489135742188,
        -0.04293045401573181,
        1.385495901107788,
        0.1929178386926651,
        0.38992610573768616,
        -0.0131912836804986,
        -2.8429484367370605,
        0.6092324256896973,
        0.015530604869127274,
        -2.5235135555267334,
        0.060322344303131104,
        -0.05901804566383362,
        -2.5374391078948975,
        0.6583090424537659,
        -0.00990952830761671,
        -2.4893431663513184,
        0.02906191162765026,
        -0.10283882170915604,
        -2.637075185775757,
        0.1477324664592743,
        0.08200246840715408,
        -2.302898645401001,
        -0.07700452953577042,
        0.10083723068237305,
        -1.2790417671203613,
        0.20230324566364288,
        -0.04277001693844795,
        -0.12174654006958008,
        0.05966365337371826,
        0.07291874289512634,
        -0.4024634063243866,
        -0.016185224056243896,
        -0.4841603934764862,
        0.6307321786880493,
        -0.14970572292804718,
        -0.04473086819052696,
        -3.7710001468658447,
        -1.037046194076538,
        0.39330047369003296,
        -11.711874961853027,
        1.4861981868743896,
        -0.16044972836971283,
        -8.4998779296875,
        -0.5085093379020691,
        -0.1354127824306488,
        -6.815774440765381,
        -0.18505795300006866,
        0.23894760012626648,
        -4.407366752624512,
        -0.22714188694953918,
        -0.17721371352672577,
        -3.36018705368042,
        0.0005778399645350873,
        -0.027151230722665787,
        -3.1820414066314697,
        -0.12875311076641083,
        -0.18980424106121063,
        -0.004438118077814579,
        -0.08780841529369354,
        -0.037956029176712036,
        0.26415395736694336,
        0.023177936673164368,
        0.590318500995636,
        -0.7465327382087708,
        -0.22884446382522583,
        -0.15748253464698792,
        2.9940176010131836,
        0.26336556673049927,
        3.211489677429199,
        0.4744304120540619,
        -0.04700031504034996,
        0.2166491448879242,
        -0.623167097568512,
        0.029857700690627098,
        0.04013988748192787,
        1.0172070264816284,
        -0.05280711501836777,
        0.2951884865760803,
        0.31605264544487,
        -0.16526459157466888,
        0.057152438908815384,
        -0.4087149202823639,
        -0.08169671893119812,
        -0.09534910321235657,
        2.3297932147979736,
        -0.122146375477314,
        -0.07649028301239014,
        -0.37692132592201233,
        0.01959007978439331,
        -0.030466385185718536,
        -0.0037740739062428474,
        -0.13095806539058685,
        0.5213167071342468,
        0.41265037655830383,
        -0.0743631049990654,
        -0.07301723212003708,
        0.2475183755159378,
        0.08099526911973953,
        0.13893406093120575,
        0.34716853499412537,
        -0.059279292821884155,
        -0.02964129112660885,
        0.25415509939193726,
        -0.04551580175757408,
        -0.006395022384822369,
        0.3026586174964905,
        0.007533351890742779,
        -0.07545313984155655,
        0.10664013028144836,
        -0.07244257628917694,
        -0.005018266383558512,
        0.09023527801036835,
        -0.09591138362884521,
        0.006191858556121588,
        0.010768347419798374,
        -0.0036259039770811796,
        0.04262881353497505,
        0.0832175612449646,
        -0.09432131052017212,
        0.028934583067893982,
        -1.5344702005386353,
        -0.04531271010637283,
        1.2613757848739624,
        -2.1058237552642822,
        0.39936116337776184,
        -0.7984172701835632,
        -1.225433588027954,
        -1.5369290113449097,
        0.5801095962524414,
        -3.278759479522705,
        -1.2427194118499756,
        -0.946834146976471,
        -2.6067166328430176,
        -1.1309361457824707,
        0.39869874715805054,
        -3.539654493331909,
        0.6882622838020325,
        -0.12988032400608063,
        -3.3958778381347656,
        0.17115353047847748,
        0.9904446005821228,
        -4.066417217254639,
        0.3501850962638855,
        0.8951602578163147,
        -3.9882395267486572,
        -0.5162236094474792,
        -0.5718191266059875,
        -2.9027535915374756,
        -0.07275480031967163,
        -0.03437511622905731,
        -0.9237930178642273,
        0.07803133130073547,
        0.19538311660289764,
        0.8828746676445007,
        0.07695519179105759,
        0.2573046088218689,
        -1.9872876405715942,
        -0.07613157480955124,
        0.06679949909448624,
        -1.3618720769882202,
        -0.12568317353725433,
        -0.15958891808986664,
        -0.6599242687225342,
        -0.21712642908096313,
        -0.16133247315883636,
        -0.35583674907684326,
        0.07605025172233582,
        0.055747032165527344,
        -0.4823014736175537,
        0.11310481280088425,
        -0.044323332607746124,
        -2.6480958461761475,
        0.10529835522174835,
        -0.12141375243663788,
        -7.848991394042969,
        -0.02101479284465313,
        -0.10835382342338562,
        -1.8819184303283691,
        -0.06743049621582031,
        0.07085344195365906,
        -1.8805019855499268,
        -0.05020398646593094,
        0.25826236605644226,
        -2.2090208530426025,
        -1.9601627588272095,
        0.3866795301437378,
        -1.324581503868103,
        -0.33952414989471436,
        -0.8395187258720398,
        -0.8854256868362427,
        -0.620353639125824,
        0.0972515419125557,
        0.09954559057950974,
        -0.23478224873542786,
        -0.4666113257408142,
        -1.6847950220108032,
        1.1541253328323364,
        -0.24175821244716644,
        -0.8603878021240234,
        0.15573813021183014,
        -0.45168426632881165,
        -1.9943063259124756,
        0.5981730818748474,
        -0.13608787953853607,
        -1.6329267024993896,
        0.6735093593597412,
        -0.04576278105378151,
        -0.0863332599401474,
        -0.04828216880559921,
        0.08682455122470856,
        -0.2585048973560333,
        0.020284190773963928,
        0.2753428816795349,
        -0.21711298823356628,
        -0.08233808726072311,
        0.002530665136873722,
        -0.36705875396728516,
        -0.09041015803813934,
        -0.026971852406859398,
        -0.4921116232872009,
        -0.04658358544111252,
        -0.011439874768257141,
        -0.4950619637966156,
        -0.03521817550063133,
        -0.001104939728975296,
        -0.5135871171951294,
        -0.03409869596362114,
        0.004212736617773771,
        -0.4570619761943817,
        -0.007955113425850868,
        -0.005197495687752962,
        -0.5017743706703186,
        0.03422192111611366,
        -0.00823100097477436,
        -0.4773479402065277,
        -0.039931945502758026,
        0.03922220319509506,
        0.01131114736199379,
        0.06585423648357391,
        0.12617744505405426,
        0.12222639471292496,
        0.03720976412296295,
        0.2848440408706665,
        0.23502899706363678,
        -0.5503589510917664,
        -0.00832540262490511,
        3.1541569232940674,
        -0.303923636674881,
        -0.36904439330101013,
        -12.875482559204102,
        2.0285847187042236,
        0.9325085282325745,
        -5.841721057891846,
        -0.14963705837726593,
        -0.12094439566135406,
        -2.0317044258117676,
        0.009233217686414719,
        -0.21995174884796143,
        -1.694203495979309,
        -0.010818121023476124,
        -0.03352944552898407,
        -0.4603842496871948,
        -0.14596791565418243,
        -0.053976863622665405,
        -1.4399397373199463,
        0.05850357189774513,
        0.10749038308858871,
        0.2628110945224762,
        0.09810738265514374,
        0.07614384591579437,
        0.1267133355140686,
        -0.04655071347951889,
        0.06984101980924606,
        -0.6588349938392639,
        0.13758429884910583,
        -0.07987228780984879,
        4.5255842208862305,
        -1.6411739587783813,
        3.727963924407959,
        -0.07426926493644714,
        0.10940247774124146,
        -0.16549034416675568,
        0.2123560607433319,
        -0.03244471177458763,
        0.006087940651923418,
        -0.4284915626049042,
        0.0833376869559288,
        0.029685189947485924,
        1.5329195261001587,
        -0.0385059155523777,
        -0.1277298629283905,
        0.3128115236759186,
        -0.08431567251682281,
        -0.09632478654384613,
        -1.5176969766616821,
        0.0429462268948555,
        -0.02751847356557846,
        -0.04791346564888954,
        0.10879208147525787,
        -0.10508725792169571,
        -2.2592074871063232,
        -0.0720938965678215,
        0.32615476846694946,
        -2.9123194217681885,
        0.09081300348043442,
        -0.5075283646583557,
        -6.851713180541992,
        -0.9509660005569458,
        1.6836843490600586,
        -5.026413440704346,
        -0.42562103271484375,
        -0.37052807211875916,
        -4.671449661254883,
        0.2531414330005646,
        0.28203558921813965,
        -4.640847682952881,
        0.7855418920516968,
        -0.8286763429641724,
        -5.728580474853516,
        -0.21582552790641785,
        0.4183982014656067,
        -4.269778251647949,
        -0.032112184911966324,
        -0.5988413691520691,
        -4.902835845947266,
