{
  "defaults": {},
  "inputs": [
    {
      "name": "clust_0_pt",
      "offset": 0,
      "scale": 1
    },
    {
      "name": "clust_0_eta",
      "offset": 0,
      "scale": 1
    },
    {
      "name": "clust_0_phi",
      "offset": 0,
      "scale": 1
    },
    {
      "name": "clust_1_pt",
      "offset": 0,
      "scale": 1
    },
    {
      "name": "clust_1_eta",
      "offset": 0,
      "scale": 1
    },
    {
      "name": "clust_1_phi",
      "offset": 0,
      "scale": 1
    },
    {
      "name": "clust_2_pt",
      "offset": 0,
      "scale": 1
    },
    {
      "name": "clust_2_eta",
      "offset": 0,
      "scale": 1
    },
    {
      "name": "clust_2_phi",
      "offset": 0,
      "scale": 1
    },
    {
      "name": "clust_3_pt",
      "offset": 0,
      "scale": 1
    },
    {
      "name": "clust_3_eta",
      "offset": 0,
      "scale": 1
    },
    {
      "name": "clust_3_phi",
      "offset": 0,
      "scale": 1
    },
    {
      "name": "clust_4_pt",
      "offset": 0,
      "scale": 1
    },
    {
      "name": "clust_4_eta",
      "offset": 0,
      "scale": 1
    },
    {
      "name": "clust_4_phi",
      "offset": 0,
      "scale": 1
    },
    {
      "name": "clust_5_pt",
      "offset": 0,
      "scale": 1
    },
    {
      "name": "clust_5_eta",
      "offset": 0,
      "scale": 1
    },
    {
      "name": "clust_5_phi",
      "offset": 0,
      "scale": 1
    },
    {
      "name": "clust_6_pt",
      "offset": 0,
      "scale": 1
    },
    {
      "name": "clust_6_eta",
      "offset": 0,
      "scale": 1
    },
    {
      "name": "clust_6_phi",
      "offset": 0,
      "scale": 1
    },
    {
      "name": "clust_7_pt",
      "offset": 0,
      "scale": 1
    },
    {
      "name": "clust_7_eta",
      "offset": 0,
      "scale": 1
    },
    {
      "name": "clust_7_phi",
      "offset": 0,
      "scale": 1
    },
    {
      "name": "clust_8_pt",
      "offset": 0,
      "scale": 1
    },
    {
      "name": "clust_8_eta",
      "offset": 0,
      "scale": 1
    },
    {
      "name": "clust_8_phi",
      "offset": 0,
      "scale": 1
    },
    {
      "name": "clust_9_pt",
      "offset": 0,
      "scale": 1
    },
    {
      "name": "clust_9_eta",
      "offset": 0,
      "scale": 1
    },
    {
      "name": "clust_9_phi",
      "offset": 0,
      "scale": 1
    }
  ],
  "layers": [
    {
      "activation": "linear",
      "architecture": "dense",
      "bias": [
        -0.46744582056999207,
        -0.4496423006057739,
        0.5792219638824463,
        -0.3669716417789459,
        -0.07880797982215881,
        -0.38700735569000244,
        0.6390066146850586,
        -0.4327773451805115,
        -0.262920081615448,
        -0.49260827898979187,
        -0.40213701128959656,
        -0.49049803614616394,
        0.2029009461402893,
        -0.3144334852695465,
        -0.31824633479118347,
        0.647156834602356,
        0.457881361246109,
        -0.13371805846691132,
        -0.2509424686431885,
        0.3484099805355072,
        -0.6847542524337769,
        -0.5954731702804565,
        -0.5032753944396973,
        -0.5091013312339783,
        -0.44687867164611816,
        0.2330937385559082,
        -0.5929933190345764,
        0.3549467623233795,
        -0.6475862264633179,
        -0.38695600628852844,
        0.12273874133825302,
        -0.8081008791923523,
        -0.6564040780067444,
        -0.38098686933517456,
        -0.2691420912742615,
        -0.07905612140893936,
        -0.7962966561317444,
        -0.40321263670921326,
        -0.38095763325691223,
        -0.7966809868812561,
        -0.3804059624671936,
        -0.5952203273773193,
        -0.6102883815765381,
        0.8621251583099365,
        -0.8276312947273254,
        -0.8714328408241272,
        -0.6993890404701233,
        -0.43582883477211,
        -0.24601861834526062,
        -0.48216766119003296,
        -0.800615668296814,
        0.12822020053863525,
        -0.7316789627075195,
        -0.21975716948509216,
        -0.41600796580314636,
        0.44747790694236755,
        -0.512229859828949,
        -0.859674870967865,
        0.42924395203590393,
        -0.9945176839828491,
        -0.2950108051300049,
        -0.1518717110157013,
        -0.0627126470208168,
        -0.8787959218025208,
        -0.1760789155960083,
        -0.39988529682159424,
        -0.7124183177947998,
        -0.45895758271217346,
        -0.25798845291137695,
        0.7002125978469849,
        -0.8832576870918274,
        -0.5114365816116333,
        -0.4643106162548065,
        -0.539642333984375,
        0.4599683880805969,
        -0.49225953221321106,
        -0.44695407152175903,
        -0.9125205278396606,
        -0.09269557148218155,
        -0.09336353093385696,
        0.7118581533432007,
        -0.4867037832736969,
        0.24157047271728516,
        -0.38209742307662964,
        -0.38482651114463806,
        0.046261224895715714,
        -0.2818928062915802,
        -0.6750829219818115,
        -0.7552978992462158,
        -0.3164450526237488,
        0.23522649705410004,
        -0.4915768504142761,
        -0.4345311224460602,
        -0.47493040561676025,
        0.7845208048820496,
        -0.5440160036087036,
        -0.4552496671676636,
        -0.6688483357429504,
        -0.3871505558490753,
        -0.3997980058193207,
        -0.8165540099143982,
        -0.24980111420154572,
        0.028144091367721558,
        -0.3574385941028595,
        -0.42769473791122437,
        -0.1642664223909378,
        0.1265837401151657,
        -0.41801315546035767,
        -0.03918275609612465,
        -0.6449378728866577,
        0.3804139792919159,
        -0.3544732630252838,
        0.02738739550113678,
        -0.571196436882019,
        -0.2327488213777542,
        -0.7194728255271912,
        0.1767347753047943,
        -0.8262280821800232,
        -0.552405059337616,
        -0.41209104657173157,
        -0.38457295298576355,
        -0.6562754511833191,
        0.24913577735424042,
        -0.6106908321380615,
        -0.6794664263725281,
        -0.5382912755012512,
        -0.19508656859397888,
        -0.46930110454559326,
        -0.3411160111427307,
        -0.37360942363739014,
        -0.4282896816730499,
        0.46926844120025635,
        0.2868722081184387,
        -0.05738573893904686,
        0.6259540915489197,
        0.6323001384735107,
        -0.41068705916404724,
        1.0725027322769165,
        -0.21083147823810577,
        -0.42266857624053955,
        -0.10371015965938568,
        -0.4161951243877411,
        -0.4718586504459381,
        -0.09233301132917404,
        -0.3587958812713623,
        -0.653988242149353,
        0.14561285078525543,
        -0.3758593797683716,
        -0.7830083966255188,
        -0.372801274061203,
        -0.4782610833644867,
        -0.235915407538414,
        -0.6430023908615112,
        -0.32747822999954224,
        -0.36038437485694885,
        -0.4157239496707916,
        -1.0355103015899658,
        -0.6755367517471313,
        -0.7758492827415466,
        -0.2830256521701813,
        0.2401498407125473,
        -0.5200998783111572,
        -0.38484489917755127,
        -0.39006680250167847,
        -0.5554056167602539,
        -0.25947442650794983,
        -0.5866729617118835,
        -0.3811534643173218,
        -0.2431766539812088,
        0.293246328830719,
        0.16335052251815796,
        -0.20716340839862823,
        -0.6230270266532898,
        0.2849271595478058,
        -0.4539737403392792,
        -0.29775470495224,
        -0.37073585391044617,
        -0.9159623980522156,
        0.25653159618377686,
        -0.5284543037414551,
        -0.4454040825366974,
        -0.7456361651420593,
        -0.16406983137130737,
        -0.3112280070781708,
        -0.4104466438293457,
        -0.38986343145370483,
        -0.9981544017791748,
        -0.022215496748685837,
        -0.4587967097759247,
        -0.3532521724700928,
        -0.4926525354385376,
        -0.7107920050621033,
        -0.5585920810699463,
        0.8208929300308228,
        -0.5062793493270874,
        -0.7327871918678284,
        -0.7098905444145203,
        -0.655066967010498,
        -0.5026900768280029,
        -0.42042607069015503,
        0.6658558249473572,
        0.13706664741039276,
        -0.2333124279975891,
        -0.030981069430708885,
        -0.4959261119365692,
        -0.7874846458435059,
        -0.9663397669792175,
        -0.0764094889163971,
        -0.1058015450835228,
        -0.2402234524488449,
        -0.3763824999332428,
        -0.20584183931350708,
        -0.12093698233366013,
        0.36699408292770386,
        0.7612138986587524,
        -0.3774450421333313,
        -0.30738887190818787,
        -0.4002234935760498,
        -0.7101538181304932,
        0.8548473119735718,
        -0.5355590581893921,
        -1.0960590839385986,
        0.018209803849458694,
        -0.44478923082351685,
        -0.5753005743026733,
        -0.5007230043411255,
        -0.5051855444908142,
        -0.8091759085655212,
        -0.48763009905815125,
        -0.48856353759765625,
        -0.5301487445831299,
        0.43393296003341675,
        0.6987984776496887,
        -0.23085033893585205,
        -0.5991200804710388,
        0.07617847621440887,
        -0.3693169355392456,
        -0.47503527998924255,
        -0.49728918075561523,
        -0.04362912476062775,
        0.6492043137550354,
        -0.5333061814308167,
        -0.06089078634977341,
        -0.3714430332183838,
        -0.329408198595047,
        -0.6427710056304932,
        -0.7633984088897705,
        0.08756042271852493,
        0.08288104832172394,
        -0.4217691719532013,
        -0.23818732798099518,
        -0.5277868509292603,
        -0.37852996587753296,
        -0.8616400361061096,
        -0.31548115611076355,
        -0.9596179723739624,
        -0.6254714131355286,
        -0.3831542432308197,
        -0.42332419753074646,
        -0.6611761450767517,
        -0.23334340751171112,
        -0.48649489879608154,
        -0.43328216671943665,
        -0.5877232551574707,
        0.2548258900642395,
        -0.3934818506240845,
        0.3534563481807709,
        -0.34411686658859253,
        -0.5231935977935791,
        -0.4436286985874176,
        -0.7582564949989319,
        0.29500895738601685,
        -0.5039603114128113,
        -0.8496062755584717,
        -0.4209338426589966,
        -0.25511878728866577,
        -0.7587271332740784,
        -0.5070611834526062,
        0.1730259507894516,
        -0.23564308881759644,
        -0.4267897307872772,
        -0.4727998673915863,
        -0.43484392762184143,
        -0.11824329942464828,
        -0.5312802791595459,
        -0.5708636045455933,
        -0.5746082663536072,
        -0.421629935503006,
        -0.43068552017211914,
        0.06088598445057869,
        -0.6576811671257019,
        -0.3345772922039032,
        0.658206582069397,
        -0.3671802580356598,
        -0.4398656487464905,
        -0.5382751822471619,
        -0.9325803518295288,
        -0.5224909782409668,
        -0.16270147264003754,
        -0.24182239174842834
      ],
      "weights": [
        -0.2621091902256012,
        -0.06249109283089638,
        0.10213460773229599,
        0.6922292113304138,
        0.08430542051792145,
        -1.0944758653640747,
        1.5109922885894775,
        -1.2558214664459229,
        1.9971956014633179,
        0.007348668295890093,
        0.14659000933170319,
        -0.2309650182723999,
        0.3614289462566376,
        -0.20252002775669098,
        -0.1403788924217224,
        0.33960849046707153,
        0.05047684162855148,
        -0.18069790303707123,
        -0.16010576486587524,
        0.2349865734577179,
        -0.09151870012283325,
        -0.41770198941230774,
        0.20598308742046356,
        -0.0029689939692616463,
        -0.3668954074382782,
        -0.15496592223644257,
        0.046663541346788406,
        0.34502092003822327,
        0.03462754189968109,
        0.022966913878917694,
        0.03991226479411125,
        0.1216329038143158,
        0.058497123420238495,
        0.16244550049304962,
        -0.04797082394361496,
        -0.08114917576313019,
        -0.3433184027671814,
        -0.28505244851112366,
        0.08448833972215652,
        0.06652533262968063,
        -0.40156081318855286,
        -0.09998083114624023,
        -0.9310975074768066,
        -0.06894038617610931,
        -0.0451471209526062,
        0.5484452843666077,
        -0.04518536478281021,
        -0.10910080373287201,
        3.1406302452087402,
        2.0798158645629883,
        0.026580626145005226,
        1.7664607763290405,
        0.022027531638741493,
        0.07553919404745102,
        1.414085865020752,
        0.03752044960856438,
        -0.021242476999759674,
        2.2072949409484863,
        0.0361383855342865,
        -0.016561288386583328,
        -0.05937505513429642,
        -0.07668909430503845,
        0.12154818326234818,
        0.019194934517145157,
        -0.11512647569179535,
        3.577181577682495,
        0.2786092460155487,
        0.04159283638000488,
        -0.05207352340221405,
        -0.7072428464889526,
        -0.17306677997112274,
        0.10047444701194763,
        0.015486792661249638,
        0.08181032538414001,
        -0.16274049878120422,
        0.4692537188529968,
        0.18078061938285828,
        0.08222006261348724,
        0.45712611079216003,
        -0.00010620839020702988,
        -0.12055151164531708,
        0.6354342699050903,
        0.04856511205434799,
        0.034273434430360794,
        0.26125213503837585,
        0.04403090476989746,
        0.1960241049528122,
        -1.7988675832748413,
        -0.05061941593885422,
        0.05551890656352043,
        -0.05773937702178955,
        -0.10700925439596176,
        -0.12741351127624512,
        0.1290966123342514,
        -0.029647212475538254,
        -0.0939178392291069,
        1.682017207145691,
        2.1944000720977783,
        2.9261863231658936,
        -0.2540742754936218,
        -0.029920630156993866,
        -0.07985395938158035,
        -0.9339236617088318,
        0.1082623153924942,
        -0.004541375208646059,
        -0.02927323989570141,
        0.0033084251917898655,
        0.1045214980840683,
        0.026444585993885994,
        0.04388006776571274,
        -0.0005131560610607266,
        -0.15090519189834595,
        0.015202370472252369,
        0.08664648979902267,
        -0.5285477042198181,
        0.05967515707015991,
        -0.05809617042541504,
        0.8616316318511963,
        -0.0018075238913297653,
        -0.044556476175785065,
        0.5897377133369446,
        0.07057364284992218,
        0.05041465163230896,
        -0.03735290467739105,
        -0.07203614711761475,
        2.9755470752716064,
        0.37855562567710876,
        -1.150180697441101,
        0.07111158967018127,
        1.711388349533081,
        -0.44541746377944946,
        0.006041942164301872,
        0.5171581506729126,
        0.30897706747055054,
        -0.10992420464754105,
        -0.8205604553222656,
        -0.07894057780504227,
        0.22425004839897156,
        -0.865065336227417,
        0.7923411130905151,
        -0.11232121288776398,
        -0.8986023664474487,
        -0.329070508480072,
        0.2624894380569458,
        -1.1904083490371704,
        -0.02419298142194748,
        0.4287753105163574,
        -1.9587901830673218,
        -0.11490112543106079,
        0.07404112070798874,
        -0.07989329099655151,
        -0.11452160775661469,
        -0.029980814084410667,
        -0.6692416667938232,
        -0.11225875467061996,
        0.3427349925041199,
        -0.5333704352378845,
        -0.11603802442550659,
        -0.14398936927318573,
        -0.13603703677654266,
        -0.13720519840717316,
        -0.12764295935630798,
        -0.8293229341506958,
        -0.0004090261645615101,
        -0.10198094695806503,
        -0.0003074427368119359,
        -0.05057197064161301,
        -0.06771977245807648,
        0.9136949777603149,
        -0.06341210007667542,
        0.031594835221767426,
        1.450447916984558,
        -0.13456641137599945,
        0.0017436041962355375,
        3.796454906463623,
        -0.01356746070086956,
        -0.010644825175404549,
        6.962568283081055,
        0.5239867568016052,
        2.005747079849243,
        -0.2737407088279724,
        0.0015970808453857899,
        -0.02441716380417347,
        -0.5444303750991821,
        0.0025819207075983286,
        0.23465582728385925,
        0.19184166193008423,
        0.28448930382728577,
        -0.004210601095110178,
        -0.8590034246444702,
        -0.03994780778884888,
        0.16451971232891083,
        -2.1532561779022217,
        -0.04485800489783287,
        -0.05508727952837944,
        -2.1459641456604004,
        0.10748489946126938,
        0.17786303162574768,
        -2.319669485092163,
        -0.016682172194123268,
        0.08400113880634308,
        -2.8360092639923096,
        -0.03152282536029816,
        -0.13488264381885529,
        -4.543055534362793,
        -0.06028546765446663,
        0.05304272472858429,
        -9.546311378479004,
        -0.0033004703000187874,
        0.0050032250583171844,
        -0.04924862086772919,
        -0.07734433561563492,
        -0.04909006878733635,
        0.17211075127124786,
        0.007983052171766758,
        -0.22686710953712463,
        0.01536063477396965,
        0.16220495104789734,
        -0.0007662876741960645,
        -0.47507748007774353,
        -0.04054604098200798,
        -0.03429725393652916,
        0.8331040740013123,
        0.04045083001255989,
        0.144928976893425,
        2.3386623859405518,
        -0.0954999327659607,
        2.6030077934265137,
        0.8353179693222046,
        -0.07686863094568253,
        -0.009278264828026295,
        0.21193291246891022,
        -0.003367519471794367,
        0.05263007432222366,
        -0.2962074279785156,
        0.08421219140291214,
        -0.004961437080055475,
        0.20047155022621155,
        0.007937408052384853,
        0.10576972365379333,
        0.34680259227752686,
        -0.1099356859922409,
        -0.09519852697849274,
        -0.029047057032585144,
        0.02814752794802189,
        0.048226501792669296,
        -1.388637900352478,
        -0.025843394920229912,
        0.10189659148454666,
        -1.6936873197555542,
        0.007610497530549765,
        0.06352218985557556,
        -0.8876549005508423,
        0.07939574867486954,
        0.1432693600654602,
        -0.21759143471717834,
        -0.3474762439727783,
        0.35843804478645325,
        1.758712887763977,
        0.3495262861251831,
        -0.9327507615089417,
        1.7116931676864624,
        -1.0978944301605225,
        0.7149236798286438,
        2.4437668323516846,
        -0.336870014667511,
        -0.41464611887931824,
        3.8521251678466797,
        -0.6068121194839478,
        0.055005766451358795,
        0.4815235435962677,
        0.1288321614265442,
        -0.1165599524974823,
        -0.4393424987792969,
        0.11250870674848557,
        0.8667877316474915,
        2.539602756500244,
        -1.1686971187591553,
        2.133793354034424,
        -0.2605248987674713,
        -0.007588957902044058,
        -0.2436734437942505,
        0.19435103237628937,
        0.0768173485994339,
        -0.015777554363012314,
        -0.6125442385673523,
        -0.11281906068325043,
        -0.03715697303414345,
        -0.7945892810821533,
        -0.08905071765184402,
        0.1557702273130417,
        -0.2622051239013672,
        0.11515610665082932,
        0.0727238655090332,
        -0.14655515551567078,
        0.10117199271917343,
        -0.0984644815325737,
        1.1226985454559326,
        0.04990188777446747,
        -0.03604397922754288,
        0.10942693054676056,
        -0.11743642389774323,
        0.06770708411931992,
        0.31142282485961914,
        0.08859343826770782,
        -0.08301979303359985,
        -0.6613738536834717,
        0.03928133845329285,
        -0.2162996381521225,
        -0.3948189616203308,
        -1.0189495086669922,
        -0.1896715611219406,
        1.1159371137619019,
        -0.453671932220459,
        0.37161752581596375,
        2.3174307346343994,
        1.5365930795669556,
        -0.027323704212903976,
        1.5578386783599854,
        -0.23536987602710724,
        0.15197542309761047,
        0.8276823163032532,
        -0.5126903653144836,
        -0.1261204034090042,
        1.1140028238296509,
        -0.9994349479675293,
        0.12299502640962601,
        1.7986507415771484,
        -0.578727662563324,
        -0.1224915161728859,
        -0.0774264857172966,
        0.08926401287317276,
        -0.0841110348701477,
        -0.06280539929866791,
        0.06317488849163055,
        0.982278048992157,
        0.2357391119003296,
        0.09131807088851929,
        -0.07296647131443024,
        3.0597922801971436,
        -3.512268543243408,
        -0.9927594661712646,
        0.2980582118034363,
        0.04082515090703964,
        0.011562764644622803,
        0.13834255933761597,
        -0.0388183631002903,
        0.026326287537813187,
        -0.13483576476573944,
        -0.02307356894016266,
        -0.04288066551089287,
        -0.4923008382320404,
        -0.02033601701259613,
        0.0732872486114502,
        -0.08144517242908478,
        -0.029262416064739227,
        -0.04285192862153053,
        -0.8532347679138184,
        -0.006538048852235079,
        0.05185842514038086,
        -1.0898500680923462,
        0.07023651897907257,
        -0.04734194278717041,
        -0.23203232884407043,
        0.12676545977592468,
        0.6588327288627625,
        -1.7254538536071777,
        0.17162834107875824,
        -0.7252863645553589,
        -2.1316280364990234,
        -0.4782782793045044,
        0.7285044193267822,
        -1.4544968605041504,
        -0.25069910287857056,
        0.20884138345718384,
        -1.4787640571594238,
        -1.0345842838287354,
        -0.008391819894313812,
        -1.20122492313385,
        0.20984534919261932,
        0.08569105714559555,
        -1.0073210000991821,
        -0.39961400628089905,
        0.20133933424949646,
        -1.2951816320419312,
        0.1691504269838333,
        -0.5727891325950623,
        -2.125664710998535,
        -0.5074653625488281,
        0.32184842228889465,
        -0.2664531469345093,
        -0.0506737120449543,
        -0.1252543330192566,
        -0.09653528779745102,
        0.0790407806634903,
        -0.4380740523338318,
        -0.5065400004386902,
        -0.21276210248470306,
        -0.2659599781036377,
        0.8057268261909485,
        0.0945233553647995,
        -0.659917414188385,
        2.2183525562286377,
        -0.47121089696884155,
        1.7255529165267944,
        0.6271538734436035,
        -0.13435393571853638,
        0.10729750245809555,
        0.4292936623096466,
        -0.09701937437057495,
        0.10967081040143967,
        -0.33351197838783264,
        0.025569656863808632,
        0.3479324281215668,
        0.3679075837135315,
        0.006997128948569298,
        -0.2906102240085602,
        2.6826751232147217,
        -0.24318671226501465,
        -0.27733197808265686,
        0.35741645097732544,
        -0.004455541260540485,
        -0.10936838388442993,
        -0.8609376549720764,
        -0.009903831407427788,
        0.9275866746902466,
        0.23540736734867096,
        -0.5861653685569763,
        0.45098450779914856,
        -0.2161712944507599,
        -0.170037180185318,
        0.2665116488933563,
        1.078188419342041,
        -0.06739376485347748,
        -0.16691866517066956,
        2.4261815547943115,
        1.1189652681350708,
        -1.3085434436798096,
        0.2500530183315277,
        0.1484588384628296,
        0.009409433230757713,
        -0.2820897400379181,
        0.20816905796527863,
        0.006745295599102974,
        0.5791158676147461,
        0.06217722222208977,
        -0.07612200826406479,
        2.6042983531951904,
        0.1709931641817093,
        -0.12098441272974014,
        -0.7226868271827698,
        -0.09155458211898804,
        -0.05335118621587753,
        -1.1268930435180664,
        -0.10908244550228119,
        -0.07539031654596329,
        -5.2103352546691895,
        0.40292853116989136,
        -0.0985826700925827,
        -3.4539995193481445,
        0.27057257294654846,
        0.1012202650308609,
        -2.0857341289520264,
        0.04035037010908127,
        -0.09069056808948517,
        -2.0372722148895264,
        0.08984017372131348,
        -0.07757788896560669,
        -1.6429606676101685,
        0.1119270846247673,
        0.08429447561502457,
        -0.927163302898407,
        -0.07756368815898895,
        -0.29805275797843933,
        -0.34273087978363037,
        -0.0715830847620964,
        0.10317039489746094,
        -0.4912055432796478,
        0.0011913282796740532,
        0.09804526716470718,
        -0.577988862991333,
        0.05740763992071152,
        -0.058890726417303085,
        -0.08901657164096832,
        0.08694090694189072,
        0.2562248706817627,
        -2.1863460540771484,
        -0.3127616047859192,
        0.06914474815130234,
        0.383985310792923,
        -0.21967385709285736,
        -0.23032806813716888,
        0.9504802823066711,
        -0.21505838632583618,
        -0.025150850415229797,
        0.5389403104782104,
        -0.019349338486790657,
        -0.10086052864789963,
        0.22083640098571777,
        0.026290375739336014,
        0.10992873460054398,
        -0.22825218737125397,
        -0.10982374846935272,
        0.2738238573074341,
        -2.258714199066162,
        -0.0505002997815609,
        0.15050983428955078,
        -8.319250106811523,
        -0.08282634615898132,
        -0.036641985177993774,
        0.22950148582458496,
        -0.06398072093725204,
        0.010747077874839306,
        0.031327590346336365,
        -0.08068426698446274,
        -0.0287542175501585,
        -0.7388879656791687,
        -1.1571719646453857,
        -0.23371350765228271,
        -0.3760167956352234,
        -1.0098789930343628,
        0.051034506410360336,
        0.7564626336097717,
        -1.0457531213760376,
        0.09207241237163544,
        1.0140659809112549,
        -0.14922654628753662,
        0.3285475969314575,
        1.1307350397109985,
        -0.8762489557266235,
        -0.14538230001926422,
        2.162114381790161,
        -0.5329527258872986,
        -0.272504061460495,
        2.3816440105438232,
        -0.4918692409992218,
        0.3417504131793976,
        2.3813438415527344,
        -0.7211897969245911,
        -0.33941298723220825,
        -0.12823988497257233,
        0.033007778227329254,
        -0.07441053539514542,
        1.520931601524353,
        0.004004891030490398,
        -0.6807501912117004,
        0.14143948256969452,
        -1.4967740774154663,
        -0.28262433409690857,
        -0.479546457529068,
        -0.6347716450691223,
        -0.3239966034889221,
        -0.6693142056465149,
        0.0846019983291626,
        0.7967736124992371,
        -0.23025833070278168,
        -0.2953135669231415,
        0.30054962635040283,
        0.3537033200263977,
        -0.26453790068626404,
        -0.07969263941049576,
        0.08055564761161804,
        -0.2767494320869446,
        0.17486044764518738,
        0.6371147036552429,
        -0.24116775393486023,
        0.7748729586601257,
        2.437875986099243,
        -0.12315584719181061,
        0.08379435539245605,
        0.07354209572076797,
        0.06457199156284332,
        -0.019510861486196518,
        0.8702973127365112,
        0.10484711080789566,
        1.5668131113052368,
        -5.426163196563721,
        0.13102754950523376,
        -0.18503904342651367,
        -0.7854564189910889,
        0.10868724435567856,
        -0.07158607989549637,
        0.09487520158290863,
        0.11663059145212173,
        0.015367851592600346,
        0.889048159122467,
        -0.16515956819057465,
        0.15968753397464752,
        0.7106648683547974,
        -0.1934417337179184,
        -0.032518696039915085,
        0.5737248659133911,
        -0.07075332850217819,
        0.0009720729431137443,
        0.3146761357784271,
        0.13287751376628876,
        0.007880757562816143,
        -0.08414766192436218,
        0.12315285205841064,
        -0.1314549446105957,
        0.2010173350572586,
        -0.09943214803934097,
        -0.10703250765800476,
        0.28481754660606384,
        0.11488012969493866,
        -0.32928311824798584,
        0.10369517654180527,
        0.002304252702742815,
        -0.06411777436733246,
        2.995758056640625,
        -2.750119924545288,
        1.8483165502548218,
        0.3793576955795288,
        -0.08226676285266876,
        -0.0791192501783371,
        -0.1014804095029831,
        -0.024757301434874535,
        -0.07195474207401276,
        0.3034011721611023,
        0.06271263211965561,
        0.07500777393579483,
        -0.0972776859998703,
        -0.017758499830961227,
        0.03900843486189842,
        0.7672997117042542,
        0.0003479889128357172,
        -0.012978366576135159,
        0.2367291897535324,
        0.017001938074827194,
        0.0480455607175827,
        0.23821330070495605,
        -0.07708786427974701,
        -0.05318635702133179,
        0.14972279965877533,
        0.07404257357120514,
        1.1898949146270752,
        0.14940856397151947,
        0.40504881739616394,
        0.7025840878486633,
        0.2681249678134918,
        0.32367628812789917,
        0.2987211048603058,
        0.4730003774166107,
        0.4724145531654358,
        0.19992923736572266,
        0.9624137282371521,
        0.5474004745483398,
        0.35988491773605347,
        1.7156341075897217,
        -1.078572154045105,
        -1.6544626951217651,
        1.2839723825454712,
        -0.009180952794849873,
        -0.17513544857501984,
        1.6005202531814575,
        -0.0371708907186985,
        -0.1554253101348877,
        2.575516700744629,
        -0.13640175759792328,
        0.026210719719529152,
        -0.2434774935245514,
        -0.08683651685714722,
        0.018319036811590195,
        -0.1665445864200592,
        0.0985315665602684,
        -0.039031174033880234,
        -0.11539670079946518,
        0.18210189044475555,
        -0.026368947699666023,
        0.32771629095077515,
        0.049476999789476395,
        -0.050297677516937256,
        0.9140548706054688,
        -0.5780463814735413,
        0.24595162272453308,
        0.41767576336860657,
        -1.0374444723129272,
        -0.996035635471344,
        1.0684211254119873,
        -0.020985445007681847,
        -0.09462781250476837,
        1.016656756401062,
        0.0819874182343483,
        0.20763236284255981,
        2.2962803840637207,
        -0.6970057487487793,
        0.3541957437992096,
        3.346210479736328,
        -1.3718438148498535,
        0.4861857295036316,
        -1.4298255443572998,
        -0.12925592064857483,
        0.012632313184440136,
        -0.39816710352897644,
        -0.017022037878632545,
        2.2889389991760254,
        -0.36014023423194885,
        0.5284528732299805,
        -0.22163136303424835,
        0.2752506732940674,
        0.805628776550293,
        -0.27176207304000854,
        -0.25543689727783203,
        0.6988109350204468,
        0.16356290876865387,
        -0.8620310425758362,
        0.22006875276565552,
        0.06525048613548279,
        -0.7563793063163757,
        -1.7642788887023926,
        1.0001509189605713,
        -1.166534662246704,
        0.16598805785179138,
        -0.0035368248354643583,
        -1.019499659538269,
        -0.054687537252902985,
        0.546491801738739,
        -1.2581967115402222,
        -0.5783504843711853,
        0.20005570352077484,
        0.8894847631454468,
        -0.0170657467097044,
        0.058714400976896286,
        1.158550500869751,
        -0.11728813499212265,
        -1.1272141933441162,
        -1.6561747789382935,
        -0.8854040503501892,
        0.054540004581213,
        -1.899396300315857,
        -1.0960544347763062,
        -0.010942847467958927,
        0.004391409922391176,
        -0.5913410782814026,
        -0.07966707646846771,
        0.657975435256958,
        -0.8279505968093872,
        0.024167466908693314,
        0.03668475151062012,
        -0.5569638609886169,
        0.15595364570617676,
        0.13249808549880981,
        -0.008758069947361946,
        -0.13498295843601227,
        -0.7157799005508423,
        -0.16661469638347626,
        0.14732468128204346,
        -0.2461382895708084,
        -0.20727193355560303,
        -0.11897008866071701,
        0.5400332808494568,
        -0.04223743826150894,
        -0.09512881934642792,
        -0.029166361317038536,
        -0.1264980137348175,
        0.053668271750211716,
        -3.0281784534454346,
        -0.17097817361354828,
        0.10198840498924255,
        -6.473714351654053,
        0.4180244505405426,
        -0.016460448503494263,
        -7.77988862991333,
        0.3108900785446167,
        0.2375437617301941,
        -8.208327293395996,
        0.13653913140296936,
        -0.11104985326528549,
        -7.242894172668457,
        0.03583943098783493,
        0.14952991902828217,
        -6.3296380043029785,
        0.11218151450157166,
        -0.1735192984342575,
        -6.206878662109375,
        0.2323102355003357,
        -0.25212806463241577,
        -6.890609264373779,
        -0.062298160046339035,
        -0.09386738389730453,
        0.054016634821891785,
        0.04674980044364929,
        0.03857908770442009,
        0.1502804160118103,
        -0.09932712465524673,
        -1.0072046518325806,
        -0.21525932848453522,
        -1.0879359245300293,
        0.7187293171882629,
        -1.3151661157608032,
        0.07237579673528671,
        0.28723862767219543,
        -1.247044324874878,
        -0.49833834171295166,
        0.8378347158432007,
        -1.387265682220459,
        -0.5173531770706177,
        0.879460871219635,
        -1.2083865404129028,
        -0.15998932719230652,
        0.5155212879180908,
        -0.5752921104431152,
        0.46380046010017395,
        -0.6363145709037781,
        -0.6659291982650757,
        -0.9493931531906128,
        0.2094595730304718,
        0.43236228823661804,
        -0.5547277927398682,
        0.09996706247329712,
        0.45715224742889404,
        -0.09822221100330353,
        0.04054718092083931,
        -0.06275732815265656,
        -0.12540817260742188,
        1.907814860343933,
        -6.797234535217285,
        -0.13608886301517487,
        -0.044889647513628006,
        -2.7164628505706787,
        -0.06135975569486618,
        -0.0903831347823143,
        -1.8392491340637207,
        0.04997680336236954,
        0.08561575412750244,
        -1.0816397666931152,
        0.20051400363445282,
        0.05552057921886444,
        -0.024509504437446594,
        0.10491646081209183,
        0.03785319626331329,
        0.5682772397994995,
        0.15136152505874634,
        0.18706269562244415,
        1.5434472560882568,
        0.14226315915584564,
        0.10616090893745422,
        2.4470508098602295,
        0.19939516484737396,
        -0.059849467128515244,
        0.48248112201690674,
        0.06364992260932922,
        -0.013617247343063354,
        -0.5439199209213257,
        0.07042364776134491,
        -0.07307735085487366,
        -0.31576594710350037,
        -0.8575977683067322,
        0.288312166929245,
        -0.13094718754291534,
        -0.3306780457496643,
        0.9886125922203064,
        -0.24039633572101593,
        0.032906465232372284,
        0.9491967558860779,
        -0.16330137848854065,
        -1.0270519256591797,
        0.2153232842683792,
        -0.8169501423835754,
        -0.14096331596374512,
        0.6268537640571594,
        -1.361843466758728,
        -0.3083341419696808,
        -0.21536578238010406,
        -1.6809197664260864,
        -0.46864572167396545,
        -0.7027209997177124,
        -1.5446738004684448,
        -0.43594008684158325,
        -0.3437492549419403,
        0.1592084765434265,
        0.02123291976749897,
        0.04905186593532562,
        0.0031348553020507097,
        -0.024848343804478645,
        1.6441090106964111,
        -0.21035702526569366,
        0.04778183251619339,
        0.14284774661064148,
        -0.4237913489341736,
        0.01892879791557789,
        0.1357182413339615,
        -0.16791506111621857,
        -0.09585443884134293,
        0.03637254610657692,
        0.4198463559150696,
        0.10675717145204544,
        -0.042339667677879333,
        2.392334222793579,
        0.04172564670443535,
        -1.887159824371338,
        1.2213860750198364,
        0.1610649973154068,
        0.034963447600603104,
        1.1879116296768188,
        -0.08774182200431824,
        0.0779852494597435,
        1.6788458824157715,
        -0.0635591670870781,
        0.04206597059965134,
        0.0050071668811142445,
        -0.04671335592865944,
        0.0012571405386552215,
        0.60101717710495,
        -0.016109248623251915,
        1.981096863746643,
        -0.7773576378822327,
        -0.7897129058837891,
        0.3703426420688629,
        1.0973334312438965,
        -0.35255199670791626,
        -0.1870076209306717,
        1.7297664880752563,
        -0.7463015913963318,
        -0.08690793812274933,
        0.20258918404579163,
        -0.4163942039012909,
        -0.06263253837823868,
        -0.26599350571632385,
        0.07476817071437836,
        0.4184151887893677,
        -0.056120555847883224,
        -0.25194793939590454,
        -0.24253346025943756,
        -0.8649061918258667,
        -0.050966691225767136,
        -0.0949692577123642,
        -4.8027119636535645,
        -0.25806525349617004,
        0.029050661250948906,
        -0.01889471895992756,
        -0.1108027994632721,
        0.05866677314043045,
        0.5689091682434082,
        -0.12906906008720398,
        -1.2000819444656372,
        -1.222598671913147,
        -0.14225168526172638,
        0.13775508105754852,
        -1.411505937576294,
        0.2251853495836258,
        0.42175817489624023,
        -1.2892937660217285,
        -0.7471567392349243,
        0.006089996546506882,
        -0.7688217759132385,
        0.7007055282592773,
        0.23822791874408722,
        -0.20678535103797913,
        -0.9834556579589844,
        -0.7396145462989807,
        -1.0397603511810303,
        -0.10638201981782913,
        0.7763109803199768,
        -0.9913513660430908,
        -0.6689150929450989,
        0.5141586065292358,
        -0.4497189223766327,
        0.3692045509815216,
        -0.17188072204589844,
        0.501331627368927,
        0.012630573473870754,
        -0.06525807827711105,
        -1.1154636144638062,
        0.006782008334994316,
        0.5622517466545105,
        -0.6188779473304749,
        -0.435685932636261,
        0.0514933280646801,
        -0.9061700701713562,
        -0.20079223811626434,
        0.08069942891597748,
        -1.623576283454895,
        -1.4950718879699707,
        -0.7087973952293396,
        -1.5312122106552124,
        -1.1467384099960327,
        -0.8552445769309998,
        -1.3122960329055786,
        -0.1937735676765442,
        0.4372097849845886,
        -1.1388884782791138,
        -0.04586482048034668,
        0.2133861631155014,
        -1.0460712909698486,
        -0.11109570413827896,
        0.0019369449000805616,
        -0.3630977272987366,
        -0.6261410713195801,
        -0.25066664814949036,
        0.17033588886260986,
        -0.06435369700193405,
        -0.08643587678670883,
        -0.5497774481773376,
        -0.07197968661785126,
        0.46899887919425964,
        -0.1256880909204483,
        0.1780007928609848,
        -0.3549295663833618,
        -0.5280102491378784,
        -0.09216134995222092,
        0.44237273931503296,
        -0.23618312180042267,
        0.02224445529282093,
        0.012803887948393822,
        0.14519666135311127,
        0.07859361916780472,
        0.33522123098373413,
        -1.1212785243988037,
        -1.1192525625228882,
        0.5522395968437195,
        -1.6341590881347656,
        -0.29603245854377747,
        -1.1814295053482056,
        -2.972550630569458,
        -1.0940383672714233,
        0.2563379406929016,
        -3.4565188884735107,
        -0.5882256031036377,
        -0.2402772605419159,
        -0.7666822075843811,
        -0.09664575010538101,
        0.017904378473758698,
        -0.3594537079334259,
        -0.07551682740449905,
        0.11800656467676163,
        1.310638666152954,
        1.5291436910629272,
        -1.0619776248931885,
        0.11808395385742188,
        -0.4824664294719696,
        0.45544055104255676,
        0.38296210765838623,
        -0.151120126247406,
        0.5388842225074768,
        0.5405674576759338,
        -0.8064807653427124,
        0.6954642534255981,
        0.8404778838157654,
        -0.11231306940317154,
        0.35899415612220764,
        0.6042799353599548,
        -0.29496335983276367,
        0.478848397731781,
        0.6864238977432251,
        -0.26733145117759705,
        0.12384464591741562,
        1.096287488937378,
        -0.35136282444000244,
        0.28598782420158386,
        -0.3456604778766632,
        0.133674755692482,
        0.0826270654797554,
        -0.7139168977737427,
        0.11855565756559372,
        1.555899739265442,
        -0.369378924369812,
        0.6897334456443787,
        -0.204872727394104,
        -0.5915340781211853,
        0.44433921575546265,
        0.08219441026449203,
        0.8280972838401794,
        0.46031951904296875,
        0.11167480796575546,
        1.508573055267334,
        0.030000312253832817,
        0.1579066514968872,
        1.9658067226409912,
        0.3611208200454712,
        -0.12269890308380127,
        2.053224563598633,
        0.6131377220153809,
        0.2997960150241852,
        2.468686580657959,
        0.3112817108631134,
        0.1811632215976715,
        4.288896560668945,
        0.019891276955604553,
        0.01630197837948799,
        -0.03781159222126007,
        -0.055783189833164215,
        0.013959311880171299,
        0.13293924927711487,
        -0.08070380240678787,
        -0.10284959524869919,
        -0.2683740258216858,
        0.05195008963346481,
        -0.06442192941904068,
        0.4620230793952942,
        -0.07480182498693466,
        -0.02416202612221241,
        0.9083032011985779,
        0.025080939754843712,
        -0.03127885237336159,
        0.58295077085495,
        0.03749352693557739,
        0.0032156012021005154,
        1.4152841567993164,
        0.05702345445752144,
        0.06095346435904503,
        2.935695171356201,
        -2.762878656387329,
        0.06359095126390457,
        2.1667778491973877,
        0.010182392783463001,
        0.07777544856071472,
        2.285022497177124,
        0.0416426956653595,
        -0.020738139748573303,
        -0.0779477059841156,
        0.054027337580919266,
        0.0584094375371933,
        0.4536864161491394,
        -0.12965333461761475,
        -0.07278301566839218,
        1.9450711011886597,
        -0.6150846481323242,
        3.9415433406829834,
        -0.5005589127540588,
        0.004898381885141134,
        -0.027313588187098503,
        -0.6436610817909241,
        -0.010632006451487541,
        0.034871868789196014,
        -0.7112147808074951,
        -0.041517626494169235,
        -0.022431235760450363,
        -0.8409647345542908,
        -0.02733526937663555,
        0.0583207830786705,
        -0.9243133664131165,
        0.009710704907774925,
        -0.017639517784118652,
        -0.7913082242012024,
        -0.04903905466198921,
        -0.02431059442460537,
        -0.6522250175476074,
        -0.04003556817770004,
        -0.0005863856640644372,
        0.2836363911628723,
        0.12885263562202454,
        0.09253774583339691,
        -0.04187830537557602,
        -0.02857266739010811,
        0.5349660515785217,
        -0.43953078985214233,
        -0.3428725302219391,
        0.28966742753982544,
        2.8440232276916504,
        -0.4298838973045349,
        -2.1275134086608887,
        -0.49986740946769714,
        -0.053903330117464066,
        0.0725887268781662,
        -0.285608172416687,
        0.00029743878985755146,
        -0.13000009953975677,
        -0.7511743903160095,
        0.00782328937202692,
        -0.01908157952129841,
        -0.2848992347717285,
        0.03889327496290207,
        -0.02122686803340912,
        0.15203620493412018,
        -0.04059750586748123,
        -0.017555180937051773,
        1.3288935422897339,
        -0.04148642718791962,
        0.0005178050487302244,
        0.8726400136947632,
        -0.13338454067707062,
        0.11172414571046829,
        1.141809344291687,
        -0.13178469240665436,
        -0.6717273592948914,
        0.746489942073822,
        0.902576208114624,
        -0.32081958651542664,
        -0.11309131234884262,
        0.25573161244392395,
        0.1151682585477829,
        -0.2224414050579071,
        -0.09851349145174026,
        0.04573136568069458,
        0.6107497811317444,
        0.14909419417381287,
        0.15055610239505768,
        0.22195738554000854,
        -0.021102050319314003,
        -0.00922938622534275,
        -0.3543281555175781,
        0.033187076449394226,
        0.2720643877983093,
        -0.46127352118492126,
        0.12351991981267929,
        -0.20153051614761353,
        0.1849335879087448,
        0.15692710876464844,
        0.14125654101371765,
        -0.3511074185371399,
        -0.12757354974746704,
        0.06538113206624985,
        -0.9240743517875671,
        -0.07961037755012512,
        0.9543527364730835,
        -1.1347771883010864,
        -0.5335835814476013,
        0.08990775048732758,
        -0.3269697427749634,
        -0.01978609524667263,
        0.10499570518732071,
        0.1668516844511032,
        -0.17793239653110504,
        0.1594310700893402,
        -0.23686057329177856,
        0.24879169464111328,
        0.13110940158367157,
        0.4866418242454529,
        0.02006634511053562,
        0.073488749563694,
        0.6093397736549377,
        0.4385265111923218,
        0.0633874386548996,
        1.864824652671814,
        -0.9797096252441406,
        -1.7415586709976196,
        2.6468183994293213,
        -0.19383323192596436,
        0.13589783012866974,
        -0.07707077264785767,
        -0.12785960733890533,
        0.02852625958621502,
        0.2235098034143448,
        -0.04859839007258415,
        -0.36170297861099243,
        -0.08910520374774933,
        -0.40632447600364685,
        -0.026766207069158554,
        -0.6971078515052795,
        -0.4280366897583008,
        0.00020317983580753207,
        -0.6218860745429993,
        -0.3310502767562866,
        0.038669779896736145,
        -0.32664138078689575,
        -0.2040456086397171,
        0.1301749348640442,
        0.011359882541000843,
        -0.25401338934898376,
        -0.05391740798950195,
        1.115294098854065,
        -0.1292005032300949,
        -0.07509215921163559,
        3.5013325214385986,
        -0.10299216955900192,
        -0.12923938035964966,
        7.237149715423584,
        2.0271244049072266,
        0.07750692963600159,
        -0.6023524403572083,
        0.09521368145942688,
        0.07117190212011337,
        -0.4027605950832367,
        -0.11303233355283737,
        -0.6933189034461975,
        -0.37955525517463684,
        -0.9490453004837036,
        0.029352542012929916,
        0.49525997042655945,
        -0.46900683641433716,
        -0.10372215509414673,
        1.9300971031188965,
        1.6903578042984009,
        -0.24044537544250488,
        0.009221064858138561,
        -0.37829336524009705,
        -0.10504452139139175,
        -0.17246279120445251,
        -0.7162589430809021,
        0.15100301802158356,
        -0.47500747442245483,
        0.10409380495548248,
        0.12090083956718445,
        0.8018814325332642,
        -0.2414233535528183,
        0.22123026847839355,
        1.469641089439392,
        -0.4441218972206116,
        0.039806216955184937,
        -1.0034282207489014,
        -0.002725238911807537,
        0.018200241029262543,
        -1.1709072589874268,
        -0.09050967544317245,
        0.34005874395370483,
        -1.5504957437515259,
        -0.21554593741893768,
        -0.06638583540916443,
        -1.1773571968078613,
        -0.052965834736824036,
        0.07241462916135788,
        -0.3185219168663025,
        7.164577255025506e-06,
        0.030997510999441147,
        0.4212539792060852,
        0.03714985400438309,
        -0.004759191535413265,
        0.5259433388710022,
        0.021467383950948715,
        0.03178860619664192,
        0.9872212409973145,
        0.06918349117040634,
        -0.1569647490978241,
        0.1948036402463913,
        0.10617391020059586,
        0.04300962761044502,
        -4.500453472137451,
        -0.021656552329659462,
        0.0007269002962857485,
        0.3525116741657257,
        -0.08951827138662338,
        0.05918111652135849,
        0.8491846323013306,
        -0.059554390609264374,
        -0.8110015988349915,
        -0.795725405216217,
        -1.0977312326431274,
        1.2817236185073853,
        -0.44721919298171997,
        -0.4946020841598511,
        -0.09381233900785446,
        -0.8508542776107788,
        0.13036060333251953,
        0.23554906249046326,
        -0.2976985275745392,
        -0.5069182515144348,
        0.2929173707962036,
        -1.1241880655288696,
        -0.21462124586105347,
        0.2150055319070816,
        -1.3799411058425903,
        -0.30124780535697937,
        0.4363226592540741,
        -1.340730905532837,
        -0.41790080070495605,
        0.538679838180542,
        -1.4738365411758423,
        -0.5349652171134949,
        0.39170771837234497,
        -0.41463783383369446,
        -0.07216591387987137,
        -0.1088922843337059,
        -0.7797124981880188,
        -0.08930978178977966,
        1.6887038946151733,
        0.15778571367263794,
        0.4069133400917053,
        -0.6403297781944275,
        1.6366829872131348,
        0.6394025683403015,
        -0.5756769180297852,
        0.02349647879600525,
        -1.46445631980896,
        0.8930704593658447,
        0.07870267331600189,
        -0.7436333298683167,
        0.5333023071289062,
        -0.19325144588947296,
        0.2958078682422638,
        -0.11827412992715836,
        0.05947156995534897,
        -0.9310900568962097,
        0.16415181756019592,
        -0.2994152307510376,
        -0.031300656497478485,
        -0.013193446211516857,
        -0.6436249017715454,
        0.08927108347415924,
        0.2632692754268646,
        0.5081703066825867,
        -0.0676003247499466,
        0.007883585058152676,
        0.2083560675382614,
        -0.006412874907255173,
        -0.1581047922372818,
        1.858422875404358,
        2.318883180618286,
        0.0904187560081482,
        0.23400108516216278,
        -0.029814017936587334,
        0.14246760308742523,
        0.27087292075157166,
        0.08749739825725555,
        0.0020141734275966883,
        -0.2951800227165222,
        0.030615871772170067,
        0.00563018536195159,
        -0.30163875222206116,
        0.01747005619108677,
        0.12023431807756424,
        -0.2150062918663025,
        -0.052933238446712494,
        -0.19721800088882446,
        0.10302390903234482,
        -0.025218263268470764,
        -0.044876206666231155,
        1.3375508785247803,
        -0.03272141143679619,
        0.047565821558237076,
        0.37081390619277954,
        0.09723901748657227,
        0.009027437306940556,
        -0.6916763186454773,
        -0.06026418134570122,
        1.410658597946167,
        -0.5291860103607178,
        0.12356729805469513,
        0.30157801508903503,
        0.5172749161720276,
        -0.3087620139122009,
        -0.7758270502090454,
        0.8625943064689636,
        0.20181803405284882,
        -0.4229224622249603,
        0.3632812798023224,
        0.34764033555984497,
        -0.08828913420438766,
        0.7807067036628723,
        -0.05310816690325737,
        -0.22320835292339325,
        1.0200663805007935,
        -0.14421199262142181,
        -0.3777814209461212,
        1.8083512783050537,
        -0.5315997004508972,
        1.6840461492538452,
        2.5963542461395264,
        -0.2082056701183319,
        0.01609017141163349,
        -0.2244800627231598,
        0.03819793462753296,
        0.038137055933475494,
        -0.05379651486873627,
        0.03885982558131218,
        1.1977159976959229,
        0.5480573177337646,
        -1.6009148359298706,
        -1.7701400518417358,
        0.35170361399650574,
        0.7671400904655457,
        0.7072808146476746,
        1.0238416194915771,
        0.3872855305671692,
        0.5170584917068481,
        0.5140706896781921,
        0.4256722331047058,
        0.3153911828994751,
        1.2967174053192139,
        0.26049038767814636,
        0.04016123339533806,
        0.4205150902271271,
        0.13950404524803162,
        0.23282521963119507,
        0.6605251431465149,
        0.051740314811468124,
        0.018196821212768555,
        1.0724726915359497,
        0.1869136095046997,
        0.15518388152122498,
        -0.43971917033195496,
        -0.000519278459250927,
        -0.040558405220508575,
        -0.15478762984275818,
        0.13077639043331146,
        -0.5365006923675537,
        0.43996432423591614,
        -0.27644822001457214,
        -0.3235470950603485,
        0.3361920118331909,
        0.02026781067252159,
        -0.2074662446975708,
        -0.22523435950279236,
        0.21247823536396027,
        -0.3241690397262573,
        0.029541850090026855,
        0.06874790042638779,
        -0.5369529128074646,
        0.627342700958252,
        -0.07709881663322449,
        0.01485939510166645,
        1.5165959596633911,
        0.47863879799842834,
        1.6364281177520752,
        1.9346979856491089,
        0.2917577922344208,
        0.5106953978538513,
        3.258307933807373,
        0.07767884433269501,
        -0.07296916097402573,
        0.9825429320335388,
        -0.10382304340600967,
        -0.1120920479297638,
        0.04702996090054512,
        -0.09921891242265701,
        -0.2576889097690582,
        -0.7001191973686218,
        0.2686156928539276,
        -0.3415583670139313,
        0.02530164085328579,
        -1.207983136177063,
        -0.7426056861877441,
        0.25387081503868103,
        -0.6164403557777405,
        0.16949428617954254,
        -0.4077977240085602,
        -0.8859379887580872,
        0.5862075686454773,
        -0.10772258788347244,
        0.10266466438770294,
        0.5686047077178955,
        -0.15833239257335663,
        -0.9921053647994995,
        0.10714171826839447,
        -0.08954864740371704,
        0.3751733899116516,
        0.48651641607284546,
        1.0167843103408813,
        0.038195256143808365,
        -0.19890503585338593,
        0.7861817479133606,
        0.06262543052434921,
        0.11355794221162796,
        0.6110416054725647,
        -0.1012265607714653,
        -0.22482888400554657,
        1.0180386304855347,
        -1.3727368116378784,
        0.12455332279205322,
        -0.812928318977356,
        -0.8792716860771179,
        0.4604378938674927,
        -1.1969773769378662,
        -0.2722468674182892,
        0.3670157194137573,
        -1.2730661630630493,
        -0.0776161178946495,
        0.22182370722293854,
        -0.8310028910636902,
        -0.11666033416986465,
        -0.1685139387845993,
        -0.9587257504463196,
        -0.23702707886695862,
        -0.11689132452011108,
        -2.0583901405334473,
        -0.08603311330080032,
        -0.14230604469776154,
        -5.769058704376221,
        -0.022532984614372253,
        0.057520512491464615,
        1.0604336261749268,
        0.06919460743665695,
        0.07208337634801865,
        0.27440565824508667,
        -0.036616042256355286,
        0.7132803201675415,
        0.039530199021101,
        -0.4009154736995697,
        0.6824442148208618,
        -0.589526355266571,
        -0.4079730808734894,
        0.7405350208282471,
        -1.1310973167419434,
        0.04801982268691063,
        -1.1579636335372925,
        -1.191948652267456,
        -0.21291705965995789,
        -0.3289998471736908,
        -1.9679210186004639,
        0.3687519431114197,
        0.829025149345398,
        -2.128530263900757,
        -0.5260283350944519,
        -0.009960683062672615,
        -1.8422353267669678,
        -0.2293771654367447,
        -0.28650200366973877,
        -2.465423345565796,
        0.17937110364437103,
        0.5260101556777954,
        1.2807981967926025,
        -0.10752300918102264,
        0.13223251700401306,
        -1.1017483472824097,
        -0.08474144339561462,
        2.5745017528533936,
        -2.4742960929870605,
        -0.5543619394302368,
        0.6992196440696716,
        -0.1369030922651291,
        0.11181479692459106,
        0.4664815366268158,
        0.03653888776898384,
        0.24582131206989288,
        0.18028295040130615,
        0.06445851922035217,
        -0.1417003571987152,
        0.2154361754655838,
        0.86372309923172,
        0.3767381012439728,
        -0.045819878578186035,
        0.6167377233505249,
        0.1064712330698967,
        -0.1255796253681183,
        1.9079713821411133,
        0.45483559370040894,
        -0.04253575950860977,
        4.289413928985596,
        0.05486200004816055,
        0.19029417634010315,
        0.03925320878624916,
        0.02263455092906952,
        -0.033682603389024734,
        0.10059578716754913,
        -0.008639076724648476,
        0.6231223344802856,
        -0.5762665867805481,
        -0.014440163038671017,
        0.16594314575195312,
        -0.5390402674674988,
        -0.22769349813461304,
        0.08807668089866638,
        -1.1468193531036377,
        -0.1079530417919159,
        0.01869981177151203,
        -0.37215152382850647,
        -0.2149084210395813,
        0.20489542186260223,
        -0.22002378106117249,
        -0.033417753875255585,
        0.20606394112110138,
        1.3049674034118652,
        0.06784708052873611,
        0.0849451869726181,
        4.114227294921875,
        1.2991771697998047,
        -1.5092113018035889,
        4.628896713256836,
        -0.03152311593294144,
        0.2695591449737549,
        0.4356958270072937,
        -0.025750529021024704,
        0.05607179179787636,
        -0.476150244474411,
        0.1238858699798584,
        4.410882472991943,
        1.018653154373169,
        0.09581688046455383,
        0.04706493392586708,
        0.18739533424377441,
        0.17659984529018402,
        0.13265301287174225,
        -0.6645836234092712,
        0.1640016883611679,
        0.046842873096466064,
        -0.44398072361946106,
        0.07287631183862686,
        0.03613157570362091,
        -0.5812224745750427,
        0.05162433162331581,
        0.06791525334119797,
        -0.6036714911460876,
        0.04015345498919487,
        -0.08286482095718384,
        -1.3426074981689453,
        -0.03899446874856949,
        -0.19519950449466705,
        -2.0716686248779297,
        0.08940473943948746,
        0.06169036775827408,
        -0.04971616715192795,
        0.04759400337934494,
        0.12996459007263184,
        -0.7983482480049133,
        -0.02454116940498352,
        0.2387564480304718,
        0.09241624921560287,
        -0.34873491525650024,
        -0.3828454315662384,
        0.6318718791007996,
        -0.29852285981178284,
        0.5748862028121948,
        0.8721727132797241,
        -0.209247425198555,
        1.0555342435836792,
        1.8523070812225342,
        0.17737482488155365,
        -0.29413285851478577,
        2.0001518726348877,
        0.4453684985637665,
        -1.1283183097839355,
        -0.05909021198749542,
        -0.3006134033203125,
        0.7010332345962524,
        0.2064826637506485,
        0.2185620218515396,
        0.2511236369609833,
        1.6712619066238403,
        0.2305862456560135,
        0.22721385955810547,
        -0.5976412892341614,
        0.09983617812395096,
        -0.03102838806807995,
        -0.6250662803649902,
        0.09067104756832123,
        0.30327293276786804,
        0.7197422385215759,
        0.3664220869541168,
        0.26859250664711,
        -0.7952538132667542,
        0.344121515750885,
        -0.49115362763404846,
        0.3359493613243103,
        0.23721395432949066,
        -0.2583942115306854,
        1.0838217735290527,
        0.4672549068927765,
        1.8164812326431274,
        0.17817670106887817,
        -0.21941101551055908,
        0.06449098140001297,
        -0.07163047790527344,
        0.11111867427825928,
        -0.2040288746356964,
        0.006036167964339256,
        -0.1487502157688141,
        -0.17912837862968445,
        1.0210527181625366,
        0.27079325914382935,
        0.2637057602405548,
        -0.215126171708107,
        0.10095807164907455,
        -0.08892107754945755,
        0.12249336391687393,
        -0.13050639629364014,
        0.5206810235977173,
        1.1992312669754028,
        0.19056056439876556,
        -0.26031413674354553,
        -6.575177192687988,
        0.2075696736574173,
        0.15185770392417908,
        -4.673530101776123,
        -0.036231525242328644,
        -0.020320875570178032,
        -4.253608703613281,
        0.025248685851693153,
        -0.0033248935360461473,
        -3.9136149883270264,
        0.18925665318965912,
        0.028267523273825645,
        -3.7661616802215576,
        0.06380274146795273,
        0.014555703848600388,
        -4.332578659057617,
        -0.021203650161623955,
        -0.0658482015132904,
        -6.525449275970459,
        0.10917619615793228,
        -0.04068342596292496,
        -0.3368431329727173,
        0.093881756067276,
        -0.022254228591918945,
        0.45305129885673523,
        -0.05249553546309471,
        -0.6047894954681396,
        0.5970971584320068,
        0.2793722152709961,
        -0.1061067134141922,
        0.4463542401790619,
        -1.1597689390182495,
        0.45244914293289185,
        -0.30989697575569153,
        1.100045919418335,
        -0.21617203950881958,
        -0.8851083517074585,
        -0.677943766117096,
        0.9935637712478638,
        -0.5390065908432007,
        -0.18789532780647278,
        1.1380903720855713,
        -0.35902291536331177,
        -0.19482310116291046,
        -0.07583014667034149,
        -0.533509373664856,
        -0.07175593823194504,
        -0.1614743322134018,
        -0.5236025452613831,
        -0.0004198520618956536,
        -0.17522625625133514,
        0.43925654888153076,
        0.06484355032444,
        0.046620458364486694,
        -0.2808641791343689,
        -0.11899129301309586,
        0.6729753613471985,
        -0.28425127267837524,
        -0.16624051332473755,
        0.16315868496894836,
        -0.4205700159072876,
        0.024318182840943336,
        0.0741550400853157,
        2.9450843334198,
        0.0894709900021553,
        -2.303823232650757,
        0.12584903836250305,
        0.0026271631941199303,
        -0.07586647570133209,
        -0.6829703450202942,
        0.006518159061670303,
        -0.043458424508571625,
        -0.8946011662483215,
        -0.029376430436968803,
        -0.08806640654802322,
        -0.536783754825592,
        0.00703467708081007,
        0.058822281658649445,
        2.058152198791504,
        0.06981673836708069,
        0.01493343710899353,
        1.1608936786651611,
        -0.028152907267212868,
        -0.08525975048542023,
        -0.30616098642349243,
        0.08300777524709702,
        2.858781099319458,
        -1.5767356157302856,
        0.7793067693710327,
        0.07451429963111877,
        -0.19122818112373352,
        -0.8853463530540466,
        0.735776424407959,
        -1.743008017539978,
        -0.5267118811607361,
        0.0986027643084526,
        -1.7078672647476196,
        -0.5532107353210449,
        -0.0438397042453289,
        -2.081735372543335,
        -0.11861290782690048,
        0.17124676704406738,
        -1.8194823265075684,
        -0.06508488208055496,
        -0.04188467189669609,
        -1.8211586475372314,
        -0.01773763634264469,
        0.2494850754737854,
        -1.9590744972229004,
        -0.633266270160675,
        0.10304129123687744,
        0.12527236342430115,
        -0.012472126632928848,
        0.117554672062397,
        -1.3516448736190796,
        -0.010841946117579937,
        1.4472028017044067,
        0.2564832866191864,
        -0.6755161285400391,
        -0.06386000663042068,
        0.3143099844455719,
        -0.7215795516967773,
        -0.08464937657117844,
        1.0166529417037964,
        -1.0709223747253418,
        1.3623255491256714,
        0.08694545179605484,
        -0.6591543555259705,
        -0.6325737833976746,
        0.39517396688461304,
        -0.3179756700992584,
        0.13329751789569855,
        0.5900007486343384,
        0.03970971331000328,
        -0.09248308092355728,
        1.7429815530776978,
        -0.08594672381877899,
        -0.11003671586513519,
        2.503424644470215,
        0.3051014542579651,
        0.3785724639892578,
        -0.16424818336963654,
        0.0904298722743988,
        -0.09751127660274506,
        -0.0371476374566555,
        -0.040458615869283676,
        0.14081095159053802,
        0.338411420583725,
        0.4247558116912842,
        -0.16151869297027588,
        -0.43865150213241577,
        -1.2180075645446777,
        -0.894158124923706,
        -0.533574104309082,
        0.23977182805538177,
        0.33167263865470886,
        -0.7618610858917236,
        0.46888911724090576,
        -0.6747077703475952,
        -0.8948896527290344,
        -0.28820350766181946,
        -0.6564986109733582,
        -1.129133701324463,
        0.704451858997345,
        0.5255250334739685,
        -1.2383493185043335,
        -0.10542058199644089,
        0.48773467540740967,
        -1.5377254486083984,
        -1.12678062915802,
        1.2661329507827759,
        0.33205342292785645,
        0.06043758615851402,
        -0.018693644553422928,
        0.17626595497131348,
        0.11138259619474411,
        0.21875599026679993,
        -1.6630477905273438,
        0.11310186237096786,
        0.4620906412601471,
        -3.023951530456543,
        0.2453209012746811,
        -1.5212680101394653,
        -1.9210935831069946,
        0.0666673555970192,
        0.4192062318325043,
        -1.683119773864746,
        -0.14031051099300385,
        0.25766417384147644,
        -1.6628373861312866,
        -0.6204342246055603,
        0.20402754843235016,
        -1.970235824584961,
        -0.13809068500995636,
        0.42317435145378113,
        -2.574512481689453,
        -0.25922349095344543,
        0.12470772862434387,
        -3.4564077854156494,
        -0.3906993269920349,
        0.4249211847782135,
        -1.8482393026351929,
        -0.10853755474090576,
        0.08606790006160736,
        -0.17778567969799042,
        -0.12922006845474243,
        -0.43678873777389526,
        -0.29461580514907837,
        0.28244251012802124,
        0.4830789268016815,
        0.888537585735321,
        0.10680931806564331,
        0.09309174865484238,
        0.9731705784797668,
        -0.2520935833454132,
        0.6221659779548645,
        1.1776213645935059,
        -0.07713237404823303,
        -0.16839352250099182,
        1.2491644620895386,
        0.21868936717510223,
        0.46311572194099426,
        1.0602070093154907,
        0.2408364713191986,
        -1.2649294137954712,
        0.8030213713645935,
        0.055391889065504074,
        0.6275776028633118,
        0.5916153788566589,
        0.2754828929901123,
        0.3975098133087158,
        -0.48376065492630005,
        0.09807777404785156,
        0.11275158822536469,
        -0.6881456971168518,
        -0.022225486114621162,
        -0.2333943396806717,
        -0.6426924467086792,
        -0.9392773509025574,
        -0.13089649379253387,
        -0.36157411336898804,
        -0.36506059765815735,
        -0.11987019330263138,
        -0.4026630222797394,
        -0.45534002780914307,
        -0.6644449234008789,
        -0.10824758559465408,
        0.929122269153595,
        -0.005389008205384016,
        0.36928364634513855,
        0.7010113596916199,
        -0.4982762634754181,
        -0.30150306224823,
        -0.8534611463546753,
        0.9616189002990723,
        0.29220107197761536,
        0.3597695529460907,
        0.2531745433807373,
        0.08850285410881042,
        -0.4916437864303589,
        0.8168213963508606,
        -0.3093654215335846,
        -0.043707188218832016,
        -0.0751836895942688,
        0.5068208575248718,
        -0.10737376660108566,
        -0.3442228436470032,
        1.5302679538726807,
        1.6639071702957153,
        0.751224160194397,
        0.6600826382637024,
        -1.364240288734436,
        -0.7603251934051514,
        0.8576269149780273,
        0.36595258116722107,
        0.19558365643024445,
        0.5539649128913879,
        -0.1947014033794403,
        -0.04099537804722786,
        0.5954564213752747,
        0.1862667351961136,
        -0.07141406834125519,
        0.5348788499832153,
        0.025912290439009666,
        -0.12958325445652008,
        0.3704155385494232,
        -0.10391616076231003,
        0.26658689975738525,
        1.0184330940246582,
        0.015061398036777973,
        0.03940757364034653,
        -0.11424048244953156,
        0.018943557515740395,
        0.04158410429954529,
        0.10765426605939865,
        0.04723251610994339,
        -0.042669422924518585,
        -0.5382456183433533,
        -0.42070215940475464,
        -0.17650912702083588,
        -0.6691707968711853,
        -0.03441132232546806,
        0.044920649379491806,
        -0.35223934054374695,
        -0.1573038548231125,
        -0.04027530178427696,
        0.9273777604103088,
        0.1274627298116684,
        0.17205756902694702,
        2.8895363807678223,
        0.6446558237075806,
        1.8519186973571777,
        1.6176210641860962,
        0.17736980319023132,
        0.2142641544342041,
        1.610637903213501,
        0.03447195142507553,
        0.04751772806048393,
        1.982797384262085,
        0.06499547511339188,
        -0.008955361321568489,
        -0.7125905156135559,
        0.09364202618598938,
        0.010827500373125076,
        -0.16957861185073853,
        0.05253371223807335,
        0.02040012739598751,
        -1.2398724555969238,
        0.08020822703838348,
        0.0765269547700882,
        -2.0307817459106445,
        -0.08375973999500275,
        0.131853386759758,
        -2.187401294708252,
        0.10209763795137405,
        0.12124575674533844,
        -2.9475772380828857,
        -0.022924112156033516,
        -0.03648381307721138,
        -4.057407855987549,
        -0.1530340313911438,
        -0.002051578601822257,
        -4.984696388244629,
        -0.034560494124889374,
        -0.06578613817691803,
        -6.723933696746826,
        -0.007657047361135483,
        0.02920534648001194,
        -11.143506050109863,
        0.0019533145241439342,
        -0.07612547278404236,
        -0.7739392518997192,
        0.013415870256721973,
        0.09448245167732239,
        -0.22388355433940887,
        0.12554341554641724,
        -0.1197003424167633,
        0.23874537646770477,
        0.16905643045902252,
        0.5312793850898743,
        -0.16228994727134705,
        1.3503247499465942,
        0.3956020176410675,
        0.4263797700405121,
        0.21127507090568542,
        0.4193354845046997,
        -0.4655058681964874,
        -0.8156309127807617,
        -0.6034270524978638,
        -0.7505313754081726,
        0.29176896810531616,
        -0.4384547472000122,
        -0.5905293822288513,
        -0.22110748291015625,
        -0.08248922973871231,
        -0.5119715929031372,
        0.1898137480020523,
        -0.7613003253936768,
        -0.10718559473752975,
        -0.4776501953601837,
        -0.37012776732444763,
        0.8765062689781189,
        -0.057900674641132355,
        -0.05988307297229767,
        1.1079827547073364,
        0.12684591114521027,
        3.724327802658081,
        -0.9613714814186096,
        0.12110764533281326,
        -0.2605604827404022,
        -1.051852822303772,
        -0.19248628616333008,
        0.2338901311159134,
        -1.6267259120941162,
        0.1301649510860443,
        -0.03234722837805748,
        -1.83164381980896,
        0.2610563039779663,
        0.47299835085868835,
        -2.2700541019439697,
        -0.5220428109169006,
        0.22121410071849823,
        -1.2155710458755493,
        0.6013330221176147,
        0.7103286385536194,
        -1.952843427658081,
        0.1528293490409851,
        0.0042583835311234,
        -1.3801188468933105,
        0.2259121984243393,
        0.0018638827605172992,
        -0.04468663036823273,
        -0.09002294391393661,
        -0.11486562341451645,
        0.02382076531648636,
        0.009998292662203312,
        -0.07532048970460892,
        -0.01714400202035904,
        0.03459148481488228,
        0.03551067039370537,
        2.6872894763946533,
        2.957693576812744,
        -0.07558074593544006,
        0.09647516906261444,
        0.017204131931066513,
        -0.00246658967807889,
        -0.24010710418224335,
        0.08435694873332977,
        0.03356880694627762,
        -0.25517696142196655,
        0.09073150157928467,
        0.03242833912372589,
        -0.12937380373477936,
        -0.006152331829071045,
        -0.012866456992924213,
        -0.15026547014713287,
        0.022900646552443504,
        -0.019298259168863297,
        0.7560436129570007,
        0.004061375744640827,
        0.03575994446873665,
        0.19713194668293,
        0.0458366796374321,
        -0.011671016924083233,
        0.2566148042678833,
        0.0019816458225250244,
        0.6109239459037781,
        0.2545621395111084,
        -0.6643801927566528,
        0.07633861154317856,
        0.12893839180469513,
        -0.2720257639884949,
        0.29393166303634644,
        0.7865238189697266,
        -0.6148954033851624,
        -0.38857337832450867,
        1.7930898666381836,
        1.240335464477539,
        -0.9134103655815125,
        0.6642125248908997,
        -0.4929514229297638,
        -0.06062852963805199,
        0.04709068313241005,
        -0.4251997172832489,
        0.0008884110720828176,
        0.3660893738269806,
        -0.15660807490348816,
        0.5202398896217346,
        2.188328504562378,
        -0.42345139384269714,
        0.13574549555778503,
        -1.3571791648864746,
        0.012327252887189388,
        0.09577284008264542,
        -1.4518927335739136,
        0.06689843535423279,
        -0.41264113783836365,
        -1.4773536920547485,
        0.03210613876581192,
        0.07331140339374542,
        -2.0609188079833984,
        0.3120127022266388,
        0.2636132538318634,
        -1.1599973440170288,
        0.09114384651184082,
        0.03098282217979431,
        -0.414075642824173,
        0.2545217275619507,
        -0.04218929633498192,
        0.8660093545913696,
        0.052579544484615326,
        -0.09856441617012024,
        2.6837704181671143,
        0.05541639402508736,
        0.06829958409070969,
        4.5808563232421875,
        -0.2576158046722412,
        -0.20072400569915771,
        6.9531683921813965,
        -0.16454170644283295,
        0.01582743227481842,
        -0.9159492254257202,
        0.07091223448514938,
        0.07435984909534454,
        0.21633465588092804,
        -0.07108305394649506,
        0.05231301113963127,
        0.22531890869140625,
        0.1662989854812622,
        -0.3119554817676544,
        0.47092804312705994,
        -0.1295151561498642,
        0.04221802577376366,
        1.6381186246871948,
        -0.15532702207565308,
        1.607615351676941,
        1.3640947341918945,
        0.5598565936088562,
        -0.9803426861763,
        0.2948949933052063,
        -0.03295249119400978,
        -0.10048937052488327,
        -0.2873747944831848,
        -0.08128617703914642,
        -0.3088207244873047,
        -0.32566407322883606,
        -0.01903870701789856,
        0.14504516124725342,
        0.8487578630447388,
        0.33466553688049316,
        -0.009974773973226547,
        0.3416212201118469,
        0.08054421842098236,
        0.08511047810316086,
        -0.10037299990653992,
        -0.11263172328472137,
        2.4839084148406982,
        1.7472689151763916,
        -3.983518362045288,
        1.1073261499404907,
        0.7726219296455383,
        0.1258268654346466,
        -0.00349026988260448,
        0.17512518167495728,
        0.0006988395471125841,
        -0.054193247109651566,
        -0.7219675779342651,
        -0.006968616042286158,
        -0.026047004386782646,
        -0.7696888446807861,
        0.011856380850076675,
        -0.020067494362592697,
        -0.5259376764297485,
        -0.039921171963214874,
        -0.09044583141803741,
        -0.014164053834974766,
        0.07114977389574051,
        0.01211440097540617,
        0.26875320076942444,
        -0.019976943731307983,
        0.07826552540063858,
        -1.6022162437438965,
        -0.022850655019283295,
        0.0534793958067894,
        -1.4374961853027344,
        -0.12027937918901443,
        0.16671818494796753,
        -0.7643128037452698,
        -0.03705279901623726,
        -0.1861998438835144,
        -1.0552010536193848,
        0.5730855464935303,
        0.13611476123332977,
        -0.667894721031189,
        -0.2938750088214874,
        -0.6829690933227539,
        0.09667187929153442,
        -0.5635094046592712,
        0.8572401404380798,
        0.20868565142154694,
        0.6174426674842834,
        -0.36246156692504883,
        0.13560594618320465,
        -0.4016912877559662,
        0.9093853235244751,
        -0.5264984369277954,
        -0.18444348871707916,
        0.6551735401153564,
        -0.23233987390995026,
        0.046179771423339844,
        -1.0104622840881348,
        0.05592641606926918,
        0.11396235972642899,
        -0.06657547503709793,
        0.3374718725681305,
        -0.06192212924361229,
        -0.9132934212684631,
        0.16576769948005676,
        -1.3417868614196777,
        2.6472866535186768,
        -0.16106407344341278,
        -0.6571788191795349,
        -0.3272545337677002,
        -0.90383380651474,
        -0.20573973655700684,
        -0.23194478452205658,
        -0.325793981552124,
        -0.11705056577920914,
        0.029841458424925804,
        -0.14756667613983154,
        -0.15111006796360016,
        0.008839953690767288,
        -0.10474667698144913,
        -0.16270434856414795,
        -0.07364333420991898,
        0.08459896594285965,
        0.03206643462181091,
        -0.19063816964626312,
        2.0989794731140137,
        0.05631183832883835,
        -0.002779354341328144,
        0.15840478241443634,
        -0.03244786337018013,
        -0.12541185319423676,
        0.18270930647850037,
        -0.04298596829175949,
        0.5283004641532898,
        -4.435393810272217,
        -0.0954681783914566,
        -1.7445969581604004,
        -1.6567943096160889,
        0.05886819586157799,
        0.30103054642677307,
        -0.2927449643611908,
        -0.25280502438545227,
        -0.12443067878484726,
        0.2778971493244171,
        -0.11163840442895889,
        -0.09423427283763885,
        0.1133505180478096,
        0.3080928325653076,
        0.25532859563827515,
        0.3413405418395996,
        -0.0688350647687912,
        -0.050386734306812286,
        -0.13232609629631042,
        -0.09448086470365524,
        -0.07295800000429153,
        -0.7721531391143799,
        0.08861654996871948,
        -0.010221288539469242,
        -1.1354007720947266,
        -0.06992489844560623,
        0.0507659874856472,
        -1.0159953832626343,
        -0.06633609533309937,
        -0.4029066562652588,
        -0.9750955104827881,
        -0.01782526634633541,
        0.08048266917467117,
        -2.136009693145752,
        0.12310585379600525,
        0.10742136090993881,
        -1.2737946510314941,
        -0.020218010991811752,
        -0.1231880933046341,
        -0.9304658770561218,
        0.18871454894542694,
        -0.04917602986097336,
        -1.247595191001892,
        -0.09576433897018433,
        -0.09360530227422714,
        -1.6873869895935059,
        0.07932282239198685,
        0.014967244118452072,
        -3.5218067169189453,
        0.017728757113218307,
        -0.0062523796223104,
        -8.087102890014648,
        0.11799149960279465,
        0.07025405764579773,
        -0.5382339358329773,
        -0.0458865687251091,
        -0.010230276733636856,
        -0.5620379447937012,
        -0.05010828375816345,
        -0.3408031761646271,
        -1.118122935295105,
        -0.00538899190723896,
        0.05826856940984726,
        -0.5086840391159058,
        -0.1001804918050766,
        -0.0437021441757679,
        -0.2536422312259674,
        0.17464275658130646,
        0.25921937823295593,
        -0.12753760814666748,
        0.37565693259239197,
        -0.09285218268632889,
        0.369813472032547,
        -0.008664117194712162,
        -0.13080906867980957,
        0.6589747071266174,
        0.13313373923301697,
        0.022171128541231155,
        2.470618963241577,
        -2.459737539291382,
        1.5575095415115356,
        2.1083922386169434,
        -0.09324859827756882,
        -0.06398425251245499,
        0.5750882029533386,
        0.07504559308290482,
        0.13298767805099487,
        -0.8186808228492737,
        0.04911322891712189,
        1.6389878988265991,
        -0.8637404441833496,
        -0.7489621043205261,
        -0.8519365787506104,
        -0.11181119829416275,
        -0.10209550708532333,
        0.5705872774124146,
        0.10940612852573395,
        -0.18358168005943298,
        0.500086784362793,
        -0.024566136300563812,
        -0.3176984190940857,
        0.22451773285865784,
        0.8420970439910889,
        -0.3973263204097748,
        0.05705184116959572,
        1.2636394500732422,
        -0.12208455801010132,
        0.3785379230976105,
        0.5151611566543579,
        -0.41576582193374634,
        0.018101656809449196,
        -1.7338151931762695,
        -0.17902156710624695,
        0.2054770141839981,
        -0.5668221712112427,
        -0.03496987000107765,
        -0.08646123111248016,
        -0.5918377637863159,
        0.04465522617101669,
        1.1318447589874268,
        -0.7116550207138062,
        -0.5285742282867432,
        0.38507139682769775,
        0.08008958399295807,
        -0.41175010800361633,
        0.7851460576057434,
        0.2126632034778595,
        -1.2172635793685913,
        0.5157862305641174,
        1.192818284034729,
        -0.5344738960266113,
        -0.40284425020217896,
        1.2792794704437256,
        1.2145195007324219,
        -0.12431209534406662,
        1.6836004257202148,
        0.34547358751296997,
        -0.08909960836172104,
        1.9159456491470337,
        0.4738357365131378,
        -0.138282909989357,
        2.4786834716796875,
        -0.44544151425361633,
        -0.4250987768173218,
        0.7531017065048218,
        -0.11862322688102722,
        0.10288156569004059,
        0.26321718096733093,
        -0.0747055783867836,
        -0.7032455801963806,
        0.04824305698275566,
        -0.17402374744415283,
        -2.1281092166900635,
        0.1669912040233612,
        -0.020163975656032562,
        -0.0501890704035759,
        0.7474356293678284,
        -0.06957578659057617,
        0.08825035393238068,
        0.8080443143844604,
        0.07608823478221893,
        -0.05766340345144272,
        0.46600520610809326,
        -0.05092494562268257,
        -0.05324234440922737,
        0.10191355645656586,
        -0.03490358218550682,
        0.018717998638749123,
        -0.8999409675598145,
        0.06325548142194748,
        -0.06331786513328552,
        -0.15078546106815338,
        -0.006242521107196808,
        -0.028245579451322556,
        0.6066223382949829,
        0.025136083364486694,
        0.05683675780892372,
        0.45723631978034973,
        -0.06080916151404381,
        4.206212520599365,
        1.404107928276062,
        0.45218050479888916,
        0.07963567227125168,
        -2.1615970134735107,
        0.3713070750236511,
        -0.12306377291679382,
        -2.53890061378479,
        0.036300741136074066,
        0.09950967133045197,
        -1.8485163450241089,
        -0.23090989887714386,
        0.000642357743345201,
        -1.637336254119873,
        -0.21123753488063812,
        0.13873279094696045,
        -0.9444555640220642,
        -0.14130142331123352,
        -0.06428983062505722,
        -1.1799659729003906,
        0.22198940813541412,
        0.43077489733695984,
        -1.7690863609313965,
        -0.11128038913011551,
        -0.08872238546609879,
        -0.18318408727645874,
        -0.11809340119361877,
        0.13096509873867035,
        -1.1775891780853271,
        -0.09552666544914246,
        0.8388327360153198,
        -0.8043777942657471,
        0.5873720049858093,
        0.07618643343448639,
        -1.5303760766983032,
        -0.738982617855072,
        0.5692607760429382,
        -0.8577139377593994,
        -0.11654053628444672,
        0.1669594794511795,
        -0.20921052992343903,
        -0.49512070417404175,
        0.355022668838501,
        -0.02608543075621128,
        -0.2840733528137207,
        0.552047610282898,
        0.2987985610961914,
        -0.07569567859172821,
        -0.09272295981645584,
        0.7402796149253845,
        -0.13427585363388062,
        0.1058788001537323,
        2.8842697143554688,
        1.1891751289367676,
        -1.1807841062545776,
        -0.05932065099477768,
        0.046895213425159454,
        0.13311463594436646,
        0.4216511845588684,
        -0.0372585766017437,
        -0.10409238189458847,
        1.6617470979690552,
        -4.799829006195068,
        0.0071346270851790905,
        0.6149297952651978,
        0.10701004415750504,
        -0.10649482905864716,
        0.49618983268737793,
        0.0533134751021862,
        0.07056517153978348,
        -0.06346186250448227,
        0.08188210427761078,
        -0.041543666273355484,
        0.47807440161705017,
        -0.009755956940352917,
        0.09328500926494598,
        0.8255329728126526,
        -0.00799335166811943,
        -0.01111996453255415,
        1.26511812210083,
        0.05812101438641548,
        -0.08315474539995193,
        0.1373404562473297,
        0.027403051033616066,
        0.0335058867931366,
        -0.08861351013183594,
        0.06869050115346909,
        -0.01686856709420681,
        -0.0896064043045044,
        -0.055516187101602554,
        -0.0675252377986908,
        -0.006596792489290237,
        -0.16512171924114227,
        0.03364165127277374,
        0.14048707485198975,
        0.06283175200223923,
        -0.07567844539880753,
        1.4201704263687134,
        -0.11224469542503357,
        -0.019513212144374847,
        3.262863874435425,
        -2.750542640686035,
        0.6520590782165527,
        1.8201684951782227,
        0.07143288105726242,
        -0.14898279309272766,
        1.2690401077270508,
        0.17956514656543732,
        0.02117742784321308,
        1.5055310726165771,
        -0.1254405826330185,
        -0.14240866899490356,
        1.186599850654602,
        0.17250102758407593,
        0.034315843135118484,
        0.1271609365940094,
        0.11786710470914841,
        0.017848489806056023,
        -0.42649486660957336,
        0.04336422681808472,
        0.2873861491680145,
        -0.13551566004753113,
        -0.2631935775279999,
        -0.03541714698076248,
        0.0687248483300209,
        -0.5795092582702637,
        0.02384442836046219,
        1.8045332431793213,
        -0.24616268277168274,
        -1.4219871759414673,
        1.1575655937194824,
        -0.5618754625320435,
        1.563355803489685,
        0.4300042390823364,
        -0.12987114489078522,
        -0.1405239850282669,
        0.04809440299868584,
        0.15181516110897064,
        -0.014728550799190998,
        0.40203967690467834,
        -0.16720610857009888,
        -0.10306115448474884,
        2.845249891281128,
        0.025340674445033073,
        -0.09424237906932831,
        0.45041120052337646,
        -0.1178981140255928,
        0.1166476383805275,
        -4.919842720031738,
        0.10593623667955399,
        -1.0773972272872925,
        -0.8350127339363098,
        0.23019327223300934,
        0.08641638606786728,
        -0.8444647192955017,
        0.018047848716378212,
        0.48199835419654846,
        -0.7555640935897827,
        -0.0194208025932312,
        0.2240961194038391,
        -0.6508764624595642,
        0.007393427658826113,
        0.21485593914985657,
        -1.1371551752090454,
        -0.07451821118593216,
        0.11601658910512924,
        -1.8680455684661865,
        -0.21421752870082855,
        0.12302389740943909,
        -2.6024632453918457,
        -0.05411790311336517,
        0.1487969011068344,
        -4.0595221519470215,
        0.11668693274259567,
        -0.10928772389888763,
        -0.20576593279838562,
        -0.0997234508395195,
        -0.06898759305477142,
        -0.44928601384162903,
        0.021914159879088402,
        -0.36068692803382874,
        -0.15010662376880646,
        -2.0318286418914795,
        0.7782060503959656,
        -0.2520221471786499,
        0.8374409675598145,
        0.18226370215415955,
        0.3261243402957916,
        0.6333145499229431,
        0.25226372480392456,
        0.16988928616046906,
        0.3881642818450928,
        0.07887744158506393,
        0.13452008366584778,
        -0.26566433906555176,
        -0.5576022863388062,
        0.17950624227523804,
        -0.6351196765899658,
        0.04625873267650604,
        0.6867944598197937,
        -0.24005593359470367,
        0.6588043570518494,
        0.7721710801124573,
        -1.1828685998916626,
        -0.5880419611930847,
        -1.3817466497421265,
        -0.06840869039297104,
        0.08753713220357895,
        -0.6218240857124329,
        0.0814361721277237,
        1.0668587684631348,
        -2.173445224761963,
        1.1498808860778809,
        1.1082191467285156,
        1.5884268283843994,
        -0.20151972770690918,
        0.1294141262769699,
        2.0408434867858887,
        0.2022489458322525,
        0.04418405517935753,
        2.3299221992492676,
        0.0763900950551033,
        0.09964828193187714,
        2.058551788330078,
        -0.06936749815940857,
        0.17424920201301575,
        1.8357508182525635,
        -0.16833102703094482,
        0.0654391273856163,
        1.8704829216003418,
        0.1351313292980194,
        0.15154479444026947,
        1.9255300760269165,
        0.09049782902002335,
        -0.02893824689090252,
        -0.39705631136894226,
        0.012828845530748367,
        0.13209423422813416,
        -0.2768169343471527,
        -0.06053721904754639,
        0.31691306829452515,
        0.14961422979831696,
        0.38225769996643066,
        -0.3083667755126953,
        0.6259183287620544,
        0.2945285737514496,
        -0.06220901384949684,
        0.8739824891090393,
        0.564492404460907,
        -0.30965936183929443,
        0.8338707685470581,
        0.6219239830970764,
        -0.336469441652298,
        0.31954166293144226,
        -2.3297007083892822,
        1.143422245979309,
        0.30112946033477783,
        0.005075343418866396,
        -0.1984909325838089,
        1.2782901525497437,
        0.02361883409321308,
        -0.20710135996341705,
        2.487083673477173,
        0.10573086142539978,
        0.10811333358287811,
        -1.561523199081421,
        -0.10177446156740189,
        0.11603967845439911,
        -1.0039827823638916,
        0.012509583495557308,
        0.44257792830467224,
        0.7347667217254639,
        -0.2775708734989166,
        0.1641843318939209,
        -0.6301016211509705,
        0.05555158481001854,
        -0.04437927156686783,
        -1.4719198942184448,
        -0.0976533442735672,
        0.14151927828788757,
        -1.5591851472854614,
        0.056469451636075974,
        -0.04274720326066017,
        -2.3851113319396973,
        -0.011939442716538906,
        -0.1947244554758072,
        -2.1672475337982178,
        -0.08135538548231125,
        0.0038594126235693693,
        -3.166318893432617,
        0.07283088564872742,
        0.07943730801343918,
        -6.35355281829834,
        0.08577965199947357,
        -0.08663278818130493,
        0.23918841779232025,
        -0.12481410056352615,
        0.05935531109571457,
        0.8482576608657837,
        0.1155933067202568,
        1.189382553100586,
        0.7996722459793091,
        0.37874019145965576,
        -1.6899088621139526,
        0.6132137179374695,
        -0.361627995967865,
        0.09232746809720993,
        0.5664119720458984,
        -0.6763761639595032,
        0.1136578619480133,
        0.05036769062280655,
        -0.31918397545814514,
        -0.29529666900634766,
        -0.8557230234146118,
        0.1630241721868515,
        -0.09036993980407715,
        -1.446871280670166,
        -0.20252609252929688,
        0.3000730276107788,
        -1.175134539604187,
        -0.2116723656654358,
        0.2704814374446869,
        -0.6143561005592346,
        -0.22204898297786713,
        0.2731201946735382,
        -0.01688801310956478,
        0.0987716093659401,
        -0.0620272271335125,
        0.15007644891738892,
        -0.05331044644117355,
        0.10081587731838226,
        -0.38394325971603394,
        0.23940259218215942,
        -0.12591753900051117,
        3.2810821533203125,
        -1.6194627285003662,
        2.339771270751953,
        0.04279365390539169,
        0.07654120028018951,
        -0.02196194790303707,
        0.3983127772808075,
        -0.049702875316143036,
        -0.05011948570609093,
        0.14906583726406097,
        -0.02976604737341404,
        0.01717708259820938,
        -0.7823092341423035,
        -0.14573971927165985,
        0.06076817587018013,
        -0.22692085802555084,
        -0.017003746703267097,
        0.05300741642713547,
        -0.6529247164726257,
        -0.04018285498023033,
        0.03576957806944847,
        0.9664207696914673,
        0.11018279939889908,
        0.12142401188611984,
        0.6316691637039185,
        -0.029292406514286995,
        -1.080818772315979,
        -0.4207810163497925,
        0.7047249674797058,
        0.501041054725647,
        0.717097818851471,
        0.7882576584815979,
        0.24799300730228424,
        -0.5263286232948303,
        0.0034739894326776266,
        0.2922893762588501,
        -0.5257969498634338,
        -0.18088364601135254,
        0.06449515372514725,
        0.11093007028102875,
        -0.04779720678925514,
        0.20141665637493134,
        0.2348507195711136,
        0.07651294022798538,
        0.1981656402349472,
        1.0680955648422241,
        -0.0423361174762249,
        0.13589905202388763,
        3.7208707332611084,
        -0.19290414452552795,
        0.00023771294218022376,
        0.43632620573043823,
        0.07558657228946686,
        -0.0007947444100864232,
        0.38520193099975586,
        0.11117782443761826,
        0.6487702131271362,
        -0.726698100566864,
        -0.24244746565818787,
        0.33323824405670166,
        -1.740683674812317,
        0.7147762775421143,
        0.41724255681037903,
        -1.1105529069900513,
        0.5711305141448975,
        -0.41566693782806396,
        0.4398878812789917,
        -0.04466106370091438,
        0.48768189549446106,
        0.12305321544408798,
        -0.4085756838321686,
        0.1862993687391281,
        0.6824830174446106,
        -0.688988208770752,
        -0.096256785094738,
        1.1027785539627075,
        0.21529552340507507,
        0.21315236389636993,
        2.1179394721984863,
        0.7854814529418945,
        0.2516765296459198,
        -0.17890572547912598,
        -0.009631255641579628,
        -0.10264965146780014,
        -0.026683952659368515,
        -0.0004071564180776477,
        -0.1770291030406952,
        -0.08626923710107803,
        -0.018389828503131866,
        -0.06361629068851471,
        -0.04246218875050545,
        0.03992898389697075,
        -0.004842977970838547,
        3.596933603286743,
        0.07696352154016495,
        2.8724071979522705,
        1.0039334297180176,
        0.07329128682613373,
        0.15170155465602875,
        0.3435022234916687,
        0.0559936948120594,
        0.03553222492337227,
        -0.27470892667770386,
        0.08129812031984329,
        0.09444398432970047,
        -0.13472981750965118,
        -0.045961782336235046,
        0.02618842013180256,
        0.06127144768834114,
        -0.0826897844672203,
        -0.022267015650868416,
        -0.40266284346580505,
        -0.08661911636590958,
        0.0590960793197155,
        0.5380163192749023,
        -0.11930838972330093,
        0.8412980437278748,
        0.5299136638641357,
        0.1261705905199051,
        0.3508096933364868,
        0.3358530104160309,
        0.29194551706314087,
        0.8278104662895203,
        0.6239113211631775,
        -1.0827631950378418,
        0.03188950940966606,
        0.09458106011152267,
        -1.191220760345459,
        0.46645358204841614,
        -0.2275341898202896,
        -1.142829418182373,
        -0.05440239980816841,
        -0.28386539220809937,
        -0.4580225348472595,
        -0.09169239550828934,
        -0.6690075397491455,
        -0.06200042739510536,
        -0.2854819893836975,
        -1.0561474561691284,
        -0.6464605331420898,
        0.13235591351985931,
        -0.8164758682250977,
        -0.08684951812028885,
        0.054508522152900696,
        -0.3240183889865875,
        -0.0755963921546936,
        -0.006398508325219154,
        -1.144387125968933,
        -0.40034735202789307,
        0.02500859647989273,
        -0.08504374325275421,
        0.22879861295223236,
        -0.42863181233406067,
        -0.09329628944396973,
        -0.26940226554870605,
        0.21147967875003815,
        0.587453305721283,
        0.6318312883377075,
        -0.40784963965415955,
        0.8564063310623169,
        -0.5801360011100769,
        -0.5054865479469299,
        1.1419934034347534,
        -0.5061784982681274,
        -0.005737861152738333,
        2.162557363510132,
